encog,BasicNetwork,java,3.2.0,1,1395348329714
[BASIC]
[BASIC:PARAMS]
[BASIC:NETWORK]
beginTraining=0
connectionLimit=0
contextTargetOffset=0,0,0
contextTargetSize=0,0,0
endTraining=2
hasContext=f
inputCount=5
layerCounts=1,70,6
layerFeedCounts=1,69,5
layerContextCount=0,0,0
layerIndex=0,1,71
output=0,0,0,0,0,0,0,0,0,0,0,0,0,0,0,0,0,0,0,0,0,0,0,0,0,0,0,0,0,0,0,0,0,0,0,0,0,0,0,0,0,0,0,0,0,0,0,0,0,0,0,0,0,0,0,0,0,0,0,0,0,0,0,0,0,0,0,0,0,0,1,0,0,0,0,0,1
outputCount=1
weightIndex=0,70,484
weights=0.5722595637,-2.0766159243,0.288278113,0.3137953263,0.1827501688,0.4953405949,0.5172363942,0.2187431444,-0.1203144836,0.559267582,-1.5524696329,0.3415554082,0.0867210123,0.3134774735,0.3700043614,-0.1450179721,0.0266194147,0.1779375562,0.1290392751,-1.7175138529,0.3325070628,-0.1904922923,0.5587254553,0.1677790069,0.5306966729,0.5956624107,0.6902454907,0.3459663865,-5.3072622286,0.1264843052,0.1598249491,0.3376745841,0.3041175594,0.4801914012,0.3833520926,0.3367824573,-0.3047739187,0.1741484773,0.6152183617,0.2859740236,0.4406925858,0.2351353689,0.3345581981,-0.8688326826,0.0198166221,0.4032177678,-0.4825060277,-0.373943213,0.1212043009,0.1943503055,-0.2122100356,0.6471368833,-0.2290528022,0.3457911906,-0.5065719532,0.5719613567,0.2048882444,0.6590300468,0.096877391,0.2039035115,0.2424573195,-0.2430870082,0.4492685241,0.4051501261,0.3891002756,0.0919217634,-0.1647049803,0.0258201613,0.1754947241,-0.0422898583,2.8007477328,4.0809688041,1.6240098197,0.3505023037,1.3942106596,-0.9850549435,0.9045583281,0.5273986294,0.3222235798,0.340783759,1.4084752769,-0.0475794409,0.9707235607,0.6560931319,0.4139678222,0.547185218,0.7723115139,0.7484130011,0.5864182911,0.9627103865,0.8580510147,0.7604565483,0.9863685734,0.8207093337,1.9726230265,1.7641309289,2.3781052758,1.1708480416,1.3339445127,1.2632342661,0.2644056137,2.2179130592,1.3796953877,0.8476078909,-2.3394533029,-0.6870552687,0.5118393419,-0.4150239349,-0.0165977151,0.2343882845,1.2396564407,1.3530869504,1.1564042165,2.0184938054,-0.4821081719,-0.2706790648,8.1286737652,1.4712414389,1.0321581622,-0.3391959806,0.8889892899,1.4367027451,1.292914857,-0.0352383391,1.124794658,1.5924938543,1.5321227486,0.4366696225,-0.3326205461,0.7779873781,0.7700550728,0.6014112464,0.1238524765,0.2727904605,0.7784626783,-0.3130065821,1.2184071867,1.2945801508,0.2850261203,1.8415449093,-0.855307388,1.3518824184,9.391163603,3.9945338906,0.3714689242,2.5849048114,6.2100555091,6.5631360292,0.2170464815,0.345682398,0.5086369522,0.8828736126,0.4945623518,-0.6225187677,1.322196666,-1.1717996286,-1.3889457818,-0.1549782126,1.1608333009,0.9460164853,0.2574089818,0.8865524841,0.2218720468,0.4345159444,0.6337838464,-1.0939500043,0.9503079769,1.2108032668,1.4795294165,0.4849842071,-0.0909090161,0.3316999716,3.2676369114,0.2989427852,-0.1504439634,0.3934635439,2.2991472193,2.34494727,1.7592971921,-0.0343342594,-0.7662056162,0.5374934754,0.1514410382,1.6166967112,-2.0037334928,1.162306889,4.1237282529,4.3592476524,-0.2211480743,-1.5798055612,-2.9067042668,0.441597717,1.535695963,0.1834247132,0.4406406405,-0.7803788798,-2.8513591096,3.1232039663,2.2966684583,3.1403517644,8.3305434292,1.6627941997,1.0433739643,-1.3841357882,9.1657998611,10.8659746151,1.3477024994,-0.860935369,1.1273801206,1.082959574,0.4009597308,0.4905277712,1.4155104515,-0.1221198276,0.5726198507,1.0743751521,1.6963647246,0.7692938448,0.2169503303,-0.0851881164,-6.5182906081,4.1281396061,5.3457028657,5.6368362664,1.1300275831,-1.7586209542,0.8587250431,0.246256887,0.1582431777,1.0542831502,1.6118310463,-1.4548410242,0.2041043562,2.3290252295,0.3784291785,1.5664283776,2.1145572402,1.2651980688,0.6916154295,1.123109331,0.9228124045,0.5559046906,0.4284092048,0.5410580501,1.764800319,-0.6662065941,-0.5057934045,-0.0267413603,1.5263084984,2.0574796446,0.6223199629,4.0819751915,-0.3919493222,2.0710608836,3.0509944517,1.4375180592,0.2803224664,0.1550052626,0.0526816839,0.7279505553,0.4443551888,1.4050734691,-0.6880635145,0.3787672263,3.492177588,0.3773263563,0.8578204693,1.4582539989,0.2180293723,1.3290751713,1.1410886118,1.1867604676,1.0593596636,1.6291573349,0.8265546556,0.9100877034,0.7612087376,0.4378733747,0.0307016648,0.3404935523,-2.8835528014,0.6074108404,0.1710696592,1.266231277,0.7758696518,-0.8351118566,-3.6021145648,1.1644109779,1.1096246461,-0.0440382638,0.5778278124,-0.178009454,-5.1104620368,1.2381605267,1.7549463475,1.2670279472,0.9130649738,-0.795849856,1.2369778393,1.6187429084,1.1617224719,0.3870722634,0.6859321119,0.6978597425,0.7779499804,1.5632411808,0.0049319364,1.1276856117,1.2943875797,1.2151878904,0.951830695,-0.3843365133,-0.5406289541,-0.1129532122,0.7016756439,1.8041188261,1.3087898364,0.3624615412,-0.3933179975,0.9090951485,1.7183916932,-0.5277912182,2.9013121281,2.0826386906,2.7634676816,1.5708227279,5.3277591056,-0.8002059576,3.7139351569,-0.4096166487,0.0839926139,0.1202989338,0.7430946074,4.2415334467,37.7521830516,27.9857071806,11.4433844314,10.9952687458,-6.059802253,0.9076947049,1.8108019345,1.7088179797,2.0694627982,0.9333812009,0.9983535199,1.1063464259,0.4313028977,-0.5482817107,-0.6501150118,1.3817186833,1.3450350953,0.8692939903,1.1579090617,0.5291817213,-0.7432207005,0.2244410052,1.7866561828,1.2721692697,0.528440816,1.0993382569,1.0055271174,0.4506935936,-0.0396422716,0.4254955743,-3.9574799483,0.6079626649,1.6386462372,-0.8236284617,2.0397376883,-0.7913634385,1.383755043,-0.2809361166,-0.0428393668,-0.6964146578,1.0465106336,0.416350818,-4.1290195452,0.4951022257,12.2654310911,16.0412173518,0.2130235961,-3.4179409617,5.6011791645,-0.8507069868,0.548469922,-1.7564696577,-2.276541839,-0.7177413179,0.8209478137,0.6665610226,-0.8315191287,-1.0216161216,1.2439062506,2.2942070554,0.3194284902,1.4452126759,0.9259989354,1.2501514028,0.2298633586,1.5181226789,0.2015641381,1.1326874834,1.0621786888,0.831855164,0.0065540529,0.1054756583,1.8537366038,1.3463782328,0.0635432923,0.1605257305,1.6698920904,-0.5281602978,4.1160677147,1.5255026467,0.9059940261,0.8415730025,3.8495135675,-0.4571974236,8.2472915848,1.3407642516,3.8078865268,5.1890304441,9.2146763578,6.364585431,1.3003630831,1.3134017974,1.7802128306,0.7653182551,0.7989339971,0.6026510127,4.4714212867,-1.1910081857,0.7621829361,-0.5253255743,4.3201342569,-1.5094807048,-12.5598142748,4.5471307253,10.474607934,3.363588029,0.6977891073,0.477171421,-1.0175418431,1.6453563995,1.6075842839,1.1468133227,2.682391269,-0.2119806855,0.2163817049,-0.7786743054,-0.6955461232,-0.812506465,-0.8441102228,15.8225291508,1.0185522457,1.0917677348,0.1283636785,-0.3201768243,0.6256527851,1.7572541601,1.236976229,1.5056598117,-58.1023195179,0.602950296,1.0210297352,0.4374625922,16.2444371509,6.3163751819,-2.1669012994,-0.6651160352,-10.8691048206,-2.7472970526,6.6977732083,-4.9225624009,2.4700066062,-0.1292726388,10.9297420015,0.8047691997,4.6049195909,4.4476157266,1.8672692986,-0.1203248343,1.7573326321,2.9704648123
biasActivation=0,1,1
[BASIC:ACTIVATION]
"org.encog.engine.network.activation.ActivationTANH"
"org.encog.engine.network.activation.ActivationTANH"
"org.encog.engine.network.activation.ActivationLinear"
