encog,BasicNetwork,java,3.2.0,1,1395288827176
[BASIC]
[BASIC:PARAMS]
[BASIC:NETWORK]
beginTraining=0
connectionLimit=0
contextTargetOffset=0,0,0
contextTargetSize=0,0,0
endTraining=2
hasContext=f
inputCount=46
layerCounts=1,70,47
layerFeedCounts=1,69,46
layerContextCount=0,0,0
layerIndex=0,1,71
output=0,0,0,0,0,0,0,0,0,0,0,0,0,0,0,0,0,0,0,0,0,0,0,0,0,0,0,0,0,0,0,0,0,0,0,0,0,0,0,0,0,0,0,0,0,0,0,0,0,0,0,0,0,0,0,0,0,0,0,0,0,0,0,0,0,0,0,0,0,0,1,0,0,0,0,0,0,0,0,0,0,0,0,0,0,0,0,0,0,0,0,0,0,0,0,0,0,0,0,0,0,0,0,0,0,0,0,0,0,0,0,0,0,0,0,0,0,1
outputCount=1
weightIndex=0,70,3313
weights=##0
##double#3313
   -0.7544024148,-0.350630106,0.4878640716,0.3061041671,-0.2099442033,0.0527278701,0.2454939018,0.0594239558,0.34891318,0.2149227684,0.1765947606,0.2307468533,0.4994253943,0.7347526301,-0.1313932814,0.1116197688,0.2599556329,0.3799629234,0.7339774197,0.3606424547,0.3998373379,-0.0529852491,0.410365337,0.5512865436,-0.0527475007,0.3030055671,-0.1930687919,-0.1066124982,-0.091929787,0.1270780191,0.1167228304,-0.4207514811,-0.1027808924,0.514920345,-0.5612418201,0.0862036862,0.1216055282,-1.9524633718,-0.0933330242,0.3026556976,0.1305743902,0.5540131028,-0.0760493278,0.5443765733,-0.056108663,-0.9437361243,0.4059927507,0.1349869605,0.5085643149,0.3535392797,0.4362487944,0.4210635849,0.3878814189,-0.0587482838,0.2278502897,0.0535196367,0.135457489,0.1175571539,0.0485993454,0.0966304592,0.3495088877,-0.2928043615,0.6162926532,0.1355133375,0.4195114995,0.1518261216,0.1317062627,0.3009553248,0.4962368583,0.7616692033,2.1460416329,-0.1956112418,0.1866887749,0.6232514799,0.1252999572,-0.0373465199,0.2991642832,0.0356263634,0.7216054273,0.7191197186,0.4251057164,0.954687729,-0.2667448462,-0.6333511132,-0.4981771272,-0.6464951652,-0.124499403,-0.5454374717,-0.482566426,0.6555001498,0.433016961,-0.1411779064,-0.0880178515,0.2575545909,-0.1119334268,0.250529208,0.5354942883,0.2283694974,-0.0616917108,0.4625386324,0.345723057,0.4209596325,0.2109573155,0.2249630316,0.3657387472,0.2180234027,0.1338757504,-0.0679502324,0.0800504963,0.5110240182,-0.0250738907,0.1853856584,-0.0423958198,-0.1712749723,0.6053174945,0.5953807266,0.383992185,1.4302113095,-0.4837245159,-0.3856414992,0.0804145076,0.0249673977,-0.0317628996,0.6818782433,0.0186394741,0.7097633675,0.899931192,0.6494866402,0.8491329227,-0.0689637687,-0.5327285727,0.031891608,-0.1486347987,-0.5828059622,-0.2193653876,-0.0961486788,0.2648602344,0.4269933132,-0.1303353135,-0.4511490384,0.5357563301,0.0937763456,-0.1985676753,0.5530566721,0.4208988141,0.2623133511,0.3755583659,0.6229443471,-0.0821143399,0.5821938328,0.6002824402,0.4704073032,0.5156972271,0.2334684872,0.2638719302,0.0108634194,0.2397071395,0.5900091464,0.1841670595,0.2581634602,0.0168863908,0.4538412627,-0.0549631766,0.6052375563,1.7483372349,-0.0782642648,0.2233445093,0.3872693427,-0.100806337,-0.002458479,0.5663526356,0.2221664914,0.9363893791,0.7487911276,1.0831378564,3.4733226552,-0.332388983,-0.4982966819,-1.0011451156,-0.553858237,-0.3343678238,0.2950654884,-0.3599259581,0.6480419727,0.5808468383,-0.5291224206,0.6145480676,0.2235689036,-0.0812794043,-0.2366581252,0.2953466865,-0.2892436295,0.2913848274,0.2477785634,-0.0693501859,0.6338519115,0.5228978989,0.2411589457,0.2733192849,0.2230123323,0.1930761681,-0.1275827855,0.5044211646,-0.0563536828,-0.4791059517,0.7323353671,-0.1856250895,-0.173603916,0.5120830878,0.7471508247,0.4728907005,2.1986348282,-0.7053000021,-0.1133576465,2.6981113534,-1.1868973735,0.6423853119,0.3070889334,0.9021125555,1.2660585646,0.867093073,0.9974520632,1.0665188059,0.2170695596,-0.9765054489,0.7583012386,-1.5721727757,-0.1990116968,0.3151981584,-0.0376320053,-0.6404454837,0.6573742849,-3.2682543386,-1.9164806156,2.5489747054,7.9905434926,0.2921563792,2.2603225213,0.326616639,0.1469181216,0.9892040805,0.4668888245,0.3419314766,1.7291942533,0.6465921899,0.2968018779,0.9473189088,0.1603307415,0.6789467736,0.3543724165,0.3316815076,0.8409482977,0.4859477874,0.7465533811,0.4093627418,1.2415835335,-0.1546371768,0.4899150812,2.8226792706,-0.3713618179,-0.5047228777,0.4233158562,-0.1058463952,-0.0348234832,0.5561069941,0.4105274998,0.149601674,0.5199001858,0.4750076188,1.1015572503,0.1280190173,-0.3344318982,-0.302066044,-0.4459153474,-0.3412368551,-0.1082766424,-0.2351364297,-0.5398146948,0.2042143736,-0.1602465865,0.51927736,0.4694781167,-0.9577138506,0.3453644007,-0.0213279175,-0.0266841435,0.1629982145,0.6529309139,0.6129776771,0.0767948422,-0.030044288,0.6618738717,0.4044361853,0.397733695,0.1047673828,0.3939953467,0.0538873608,0.1095441171,0.7623655073,0.6924585166,0.4128090559,0.1435264462,0.7719085914,0.2706527719,0.5576770078,1.7703095803,-0.5657153248,-0.2957482551,0.7254097188,0.4064961797,0.4931331982,0.0937855192,-0.5224230287,1.3717955617,-2.7988786993,1.6226941757,1.0420354169,-0.4407037743,-0.3983560253,0.1818947288,-0.0699448983,0.0323895403,-0.3540575041,0.0799820037,0.5652791437,0.2491262551,0.1103773398,0.1622730463,-0.3634406912,-0.1982437846,0.531389098,1.4014692681,0.0963181405,0.3741191205,0.2516931129,0.4870480476,0.209277408,0.5977106907,0.3755630718,0.3971170161,0.178559677,0.3355378511,0.3140797193,0.051635355,-0.0141829599,0.6254932932,0.4573295974,-0.097412156,0.4896815806,0.2998182859,0.1893731203,0.2833334883,1.9103739427,0.4063949525,-0.8188164858,-0.0491958743,-0.215060896,0.2762280411,0.3422883396,0.4528744528,0.3320382896,0.2443626334,0.0145263478,1.2769277198,-0.0348136863,-0.4753590887,-0.2882455285,0.1727834972,-0.3864633071,-0.2037795732,-0.2139366454,0.7498069777,0.5968774923,0.229054256,0.2401271848,0.1400855376,4.3046666746,0.2415137698,1.3040103985,0.4165093247,0.1953192244,0.0275312166,0.2486319196,0.6576221849,0.2256070779,0.2110521301,0.6659847994,0.4997356647,0.0845990805,0.1675821215,0.4631801464,0.6742220531,0.5417609839,0.3927354464,0.178216458,0.3208019775,0.5301681248,0.4808343351,0.3991490912,0.4748058403,-5.5656191699,-5.648696497,-4.0118494341,0.234174563,3.2276131287,-0.5813276399,0.9925704117,0.4400987406,2.07889037,2.2648988775,1.8994851361,0.39554949,14.5308005296,0.4770081244,-3.4251079486,-0.1227050143,-1.9065543726,-1.0307108036,6.9994810635,1.0060528005,3.8781560867,1.1519075825,4.5367521424,1.975944536,1.5619885304,1.1654761593,0.3479507517,0.1509672135,1.2470454757,0.8807242032,-0.0761796636,1.1201260207,0.2769728046,1.1980866019,1.5961783897,0.4430191845,-0.0583476515,-0.1795432878,0.3702657797,-11.9613523573,2.0280027991,-0.8372382293,-0.0566843253,1.0707497998,-0.3005449772,0.3486534226,3.3255502832,-0.3244392856,0.8362820623,2.0725609629,-0.7018871574,-0.643763059,0.675338797,-1.8910834438,0.8853208374,0.016727012,0.8362694709,1.2169081676,0.2810012093,-0.2129844099,0.4524479427,-0.3998508785,0.2655816639,0.1555903182,0.0618316416,0.6083107761,-0.5196290239,0.9411241798,0.2839493444,0.0478179146,3.2290657719,7.3259046189,0.1823777855,0.0217733845,0.1491847222,0.4574722422,-0.6145129703,0.4674519075,0.2912921881,0.9185713981,0.5035178202,0.528820815,0.4496341894,-0.056815602,-0.0879658339,0.574532428,0.2098869796,0.0971946634,0.316908517,-0.3325546049,1.2344032275,-0.3938840687,-0.2596736291,2.1044720467,-1.6740781517,-0.8499414762,0.1685609688,-0.8082197913,0.4177255792,0.699829745,0.3507284787,0.3917631586,-0.9463382095,-0.0548556378,1.0693581164,1.6596971389,-0.0681236115,0.018907154,-1.5423069679,0.0716390185,-0.071601758,-0.1309637576,0.6906286199,2.3865739568,-1.6651826292,0.5513053136,-0.004248929,-1.0635636467,-0.6614951353,2.3505705783,0.2665047013,0.1614822004,0.7648462021,0.1854940868,0.623251576,0.6664108362,0.2109552504,-0.0535001189,0.1852505018,2.1374109782,0.4713493684,-0.0361459198,0.6890698838,0.5445537354,0.2106078501,0.6630307652,0.2089790385,0.0644327655,0.376087733,0.6666569986,-38.9950923252,2.9114707416,-1.6152531946,-9.6980742582,-1.5635924502,-3.0483458437,0.6850566526,-1.1075537587,-0.1562809104,3.8656626462,2.2522901089,0.2774957881,-0.2748808784,-1.4602612412,-0.2808889662,-0.2782979063,0.1479485664,-3.1341550511,0.7507448729,-3.1035676375,-1.0829440762,-1.5844411403,-0.8309842771,-2.2407629588,-4.1476342811,0.460586483,-3.0925047556,0.6388485315,0.0589670396,0.9351422318,1.7933550772,0.4254270472,-1.5917955105,1.7645935347,0.4131870469,0.0326420055,1.0670069336,0.7201282509,0.6504984157,0.7736646921,1.404430284,2.6147260536,2.740458416,6.843605348,1.7016890008,-0.5172615141,-0.4199556902,2.2677675758,-0.4001399204,-1.6950186488,-0.5829340546,1.8623000953,-1.120684123,0.6916995502,-0.3367689805,-0.0919457185,0.5745223538,1.9943695098,1.1558497463,-0.7016481087,-0.191943871,-3.2433660575,-0.6423786969,-0.9360655698,-0.9501987238,-0.8729827981,0.9105181275,1.4773167767,-0.3767688815,-1.7696563437,0.1233406889,-2.4001588807,-1.2285076845,0.4740833673,-0.2595115602,-0.0990280741,0.4823807542,-0.4830452148,0.1127401379,-3.4134314469,0.4624343401,0.4556827871,-0.2620408355,0.2073778842,0.3489794583,0.375002607,0.3707783603,-0.5451151352,-1.5188961467,-1.1193215699,0.2634356227,-1.9647109228,2.564814129,0.1818930697,1.6363404056,5.5858027528,-1.762309992,0.6751148487,-0.073681961,0.5579949918,0.755068173,-0.6201876168,-2.2704008632,0.7542230014,-4.630282697,0.9593329245,-0.6945273041,-0.4362017012,-0.6451065214,0.5549800747,-0.1186074668,-0.161243275,-0.8023940032,0.6657005523,-0.3131818166,-0.1018131531,-0.6679790029,-0.096062559,0.5147590296,0.5905285508,-0.2304865153,0.4403571696,0.5130233249,0.6285003901,0.0901572946,0.5536065001,-0.0971352772,-0.3292370148,0.0061568463,0.3700069391,1.0228292369,0.5988165509,0.4098780109,0.9347817901,-0.1262045482,0.5869681396,-0.2696099117,-2.4380200312,0.9528208779,0.1883687868,-1.0058560325,2.5746592657,-1.2486200005,-0.7848272474,0.0400210386,-0.9565409741,0.3407828815,-3.4812458861,0.5913342719,-1.0224566761,0.5325494016,-2.5465465601,0.7541406806,-0.8191918198,-0.192163705,-0.1229351445,-0.1357426544,-0.0001959107,1.2030708693,0.1222404011,-0.1037519162,0.3519766108,0.926682445,0.7215141627,0.5233450425,-0.6325055483,0.5473844613,1.1261254364,-0.0647107897,0.3573044831,-0.0894893231,-0.1057027974,0.3569301441,-0.0560410678,0.2300163692,0.2097285598,0.0294439043,-0.5732270515,0.5340473893,-0.0818322251,0.3995698344,0.2156505348,-0.3682827926,0.1463943077,-0.815071113,0.8744434466,-0.1543102866,0.8808060112,-0.3328315183,0.2237230205,-1.944694413,-1.7648069796,0.1376523396,3.8935350394,-3.0744036369,1.0307635217,-0.1910805796,-3.2797171533,-0.3457859619,-1.975134509,-0.1872768305,3.9200240884,-0.2080175169,-0.6255401063,0.0820978615,-0.3717781238,-0.1056988887,-2.1222908085,2.0318743257,-3.5168777598,4.4811107915,3.8982827789,2.020180907,5.0625582682,-0.729658725,1.0732762259,0.3240507833,3.7994491814,0.4620725358,0.1809763464,3.5928616446,4.9861449964,-2.4238822984,6.1107223575,-0.7544421573,-1.3598787032,0.618663861,0.1841552463,2.5134972967,1.9878736296,2.0299896913,-0.1752155476,0.1367243518,0.6044451342,-0.0104579221,1.5259408881,0.0578039022,-0.3666130388,0.2023144057,0.4182572471,1.6238708001,0.6703809159,-1.7191079011,-4.3335984094,-0.5061520382,-4.5152166551,1.056245517,-0.70656412,-0.1412918679,-0.2950078265,-0.2183270296,-0.1278960181,-0.4677286857,0.1286928699,0.4436161542,0.9124820633,-0.3418364764,0.4936403038,0.3269196515,0.3565177605,0.6442545139,1.1352728816,0.5578257684,-0.0208929369,0.3135777986,0.0229852688,0.5005611732,0.5687987721,0.3756195507,0.2272566236,0.5115665351,0.4347296621,0.5571691314,-0.0778102358,0.2585518137,-0.0555674836,0.5815676718,0.0047698847,-0.0485472616,0.5065824342,-0.0324793219,-0.1309103254,1.2627747867,-1.2518028114,-0.7781638794,-0.0609831857,0.0109556874,0.5344077153,0.6115212403,0.3243836536,-0.1189877316,-0.3150110472,-0.0538486262,0.3218712325,-0.1020489577,-1.3888785496,-0.3144499246,-1.1790449153,-0.2338605267,-0.5667471133,-0.3420722812,1.4889587422,7.4031768561,-0.3510529596,-0.0797066541,0.4449961512,0.419960094,-0.2975200428,1.684390514,-0.0273714758,0.4720861292,0.8217728055,0.5604156032,-0.077090779,0.5680829865,0.1356893268,0.0297297577,-0.7497309432,1.8738780346,0.0169063154,0.2182274024,0.2157678672,-0.1963306257,0.0512766263,0.3265730388,-0.2197465892,1.0991439598,0.3599931534,0.6832471629,2.8549211524,-0.4704972953,-0.4066238969,1.129370197,-0.3207859223,0.4765712876,-0.799501621,0.1869730945,-22.0223313657,-7.5040682313,-1.8540418951,0.8664268468,-0.4445762012,-0.2134924983,-0.2752850152,-0.5846174031,-0.6103473008,-0.1845509271,-0.2811666201,0.5173714865,0.4263267231,0.0393702773,0.4283848922,0.6415808767,0.0155096381,-0.0807476723,0.8761949001,0.2506337346,0.2229017365,0.7747726738,0.4512285981,0.6443193168,0.2961049827,0.0429792053,-0.0428195073,0.2480298675,0.2589288328,0.2763589202,0.5136524315,0.3742122208,0.1039798164,0.4205277198,-0.1831898351,-0.1611826737,0.6070455876,0.5237447453,0.8018747434,1.7425585121,-0.4643465479,-0.8542925907,0.2694232848,0.1894931826,0.0277363164,-0.0828228616,0.1848770593,-0.3135163735,-0.3025330019,-0.0319546047,3.282528816,-0.6260870063,-0.110275959,-0.3170167516,-0.2868931134,-0.5601106899,-0.0828627902,-0.7367205303,-0.9280085571,0.5592420747,-0.2735850716,-1.1027331283,0.2977116043,0.1166235977,1.3622631388,1.2049835045,0.0533982554,0.5737732029,0.2321127426,-0.0399402101,0.3385183325,0.6292172523,-0.2713363061,0.3302685867,0.4257603449,0.10032979,0.353959182,0.5670518918,0.4295859194,0.1608793695,0.1838547214,0.1661125374,0.1318434854,1.0675712715,-0.1510005848,0.4010720188,1.2740253883,-0.75657626,0.188937024,-0.2585908683,-0.2184325294,0.0580395365,0.2023401466,-0.2245180861,-0.0615535315,-0.0575810077,-0.1292414959,0.5814756665,-0.4592205317,-0.265716954,-0.3300752092,0.1799784205,0.1896787805,1.6944882872,0.2248966627,-0.815179966,1.8969796268,1.0910420385,3.7640206154,3.0627800116,0.9526144511,-0.1251676495,1.3338323382,0.2656226588,0.3233622727,0.6298835868,0.3370796929,0.5321476519,-2.1198181159,0.627230111,-0.1089247721,0.0794165133,-0.1044972103,-0.0866203622,0.2449018121,0.0637680191,0.322671869,0.0104140591,0.6950398789,-0.0485284959,-2.8889129626,3.4535291765,-0.1500628082,2.1121258984,0.7671389788,0.1998517758,0.5743239426,0.6695115824,0.3572751225,5.9989639857,-0.0402339174,1.4760283326,1.0932700693,10.7400280319,-3.8590975517,-0.0406414397,-0.3999668444,-0.0952811911,-0.207046607,0.0180560514,-0.4175965462,-0.0070631405,-0.375173002,-0.5575237693,0.8418007448,-0.737547905,1.9720488831,1.1097587104,0.1406830294,-3.2925260705,0.3447345161,0.7727382846,0.2010829534,1.1933214217,0.4793080675,1.6465559824,-0.4781301918,0.1779798278,1.3485628538,0.2362264833,0.4852587098,0.1790891163,0.5554271997,-0.3576770175,-0.0937793319,0.3349090634,0.1457223173,-2.1052135487,2.6351572052,0.5239514605,1.0700361685,6.4534656817,-2.2445455078,9.2073768053,0.9471737857,-2.5664749856,-1.0963724167,-3.8297618838,-0.0213824712,0.3495939549,-0.0716222376,-5.9181023269,-0.7758619868,1.3884965119,0.7693123502,0.3553872195,0.4549575882,-0.0707576065,3.8326435709,-0.8289824923,-7.9694769124,0.5671137855,0.199608757,4.1526522496,4.1804305842,0.4059997971,-2.3727845448,0.1070854001,1.2497766002,0.4944872862,-0.6257483748,0.5558956231,4.0580119916,0.74200944,4.619549404,-1.0719657234,2.545258208,0.2578785774,0.5837587739,0.201432124,3.3278886135,-4.3147323373,-0.507197942,19.3652066531,-0.6006527312,1.5428026674,-0.5742778877,1.0973717991,-4.4682189133,-0.3141095554,0.1593828696,0.2407623905,0.109294892,0.7447296415,0.2313732923,-2.9873235274,4.635217466,1.5751636264,1.0454060118,-1.4659234563,-0.4466057767,-0.4817442078,-0.1322400438,-0.3870891186,0.2075271212,0.5524062024,0.7996266386,0.5633565654,-0.1418880523,-0.2907125133,0.47556317,0.3850584869,0.4033856427,1.0756313737,0.6080846154,0.4516895283,-0.1282117856,0.3813207776,-0.0411370277,0.6793379416,0.4201104677,0.4003998463,0.2928366491,0.1645476251,0.1137056998,0.2758070099,0.1384336251,-0.1820509087,0.5319835849,0.5383617287,0.4308851394,0.3319749619,-0.1267243745,-0.58717895,2.4469909781,6.627150227,-1.588836352,4.8286961054,-4.16310857,0.4474092847,0.3442644875,-0.3731214724,-4.2255101631,1.4127607768,-1.6854792522,2.4520492415,-4.1953668371,-3.1041833774,-2.3809276226,-69.9795149729,-1.7705970085,-3.6024982321,12.0418737128,1.6885304526,3.9670593037,4.5825532817,4.4449012314,-0.8940147345,-0.9817769335,-1.3467318321,-1.1160372142,-0.5918686509,-0.330732589,-2.3897733567,-2.5722569555,-0.5038798688,-0.6054968034,-0.2930880106,0.3830539182,-0.7132641581,-0.0936654722,1.3046202085,-3.2629701113,-1.323015118,1.34259662,0.9776405001,-1.1364068584,-0.7696778251,1.0708462942,-0.5198668389,1.7044209826,1.0190170249,12.8547965982,-20.696114987,-14.0749931609,1.420390952,4.8038601361,2.6109032136,10.7492309222,1.116422889,-1.2634478459,4.7315271315,-2.2354615646,15.6328404404,14.9726163073,3.4107489213,-11.2627111564,3.7521763552,20.5673323754,11.6417034114,2.5509417776,14.4703705151,2.3121582007,0.9104939936,-1.7442141479,-2.3354713448,0.3043960017,1.4839147059,0.0839793206,0.3511370476,-1.3599147041,0.467951256,0.4147425156,2.9659036472,0.5489401232,-0.493589839,-0.8821338976,-1.9417732561,0.7006110268,0.2508263656,0.6651958676,2.0903343702,4.5356429186,1.1395972,0.1148715225,0.5071223612,0.3701031346,-0.2146630134,1.6716752085,-0.594500316,-0.6335552268,-0.3125679886,-0.1299184043,-0.1024034741,-0.0351331435,0.3545377893,-0.1379118208,-0.0369548424,0.0146065438,2.0697377254,-0.0251347513,-0.5264233406,-0.1378688229,-0.8977616233,-0.6162623611,-0.2846227094,-0.2373647782,0.1421706614,0.8038798467,-0.2754847008,-1.1225030976,-0.0815849181,-0.4677852484,0.3921314937,0.8516737007,0.1630803456,0.0040728187,0.7568691049,-0.1882942171,-0.1999204096,-1.7076689071,0.6314880161,-0.2880437427,0.277737789,-0.3015108295,0.1922823962,0.3652394689,0.0507872437,0.1420135197,0.0834859777,-0.1333348897,-0.8527131353,0.8749396406,0.0620063937,0.7720033964,1.6315316775,-0.3864830036,1.7864629869,-0.2773894864,-0.0026195391,-0.1945432827,0.134051118,0.137526135,-0.0876913735,0.4825868688,-0.5068517645,1.5610117938,-0.3303135812,-0.6912391056,-0.7768502488,-0.7857524676,-0.2835553855,-0.6560672903,-0.3939438176,0.4345272511,0.3254196132,-0.4591310344,1.1132871453,0.1967841069,0.1636060688,0.5336092568,1.2560599328,-0.3310598158,0.0783002125,0.6420386881,-0.1303958502,0.245087718,0.7955170498,1.0764207701,0.1876709951,0.4772121688,-0.6099393215,0.1204966694,0.2313503503,0.2160319705,-0.6073974611,0.7333469136,0.034731461,-0.2751239412,0.9843235365,-0.1220129933,-0.2009948781,1.2497643801,0.5190286921,-1.1173392945,0.0245786546,-0.7053849201,0.1243266267,0.1910402192,1.8823602909,0.6810680624,-1.1096395891,-0.5207551586,-0.0959486301,-0.8766746786,-0.6477809925,-0.7460369575,-0.9592762474,-1.0928090215,-1.0639191953,-0.8914565514,0.7963829901,1.1139217262,-0.4719065563,-0.1387890014,-0.1748799529,0.9925199487,0.5037917746,0.3161595549,0.1817694688,0.2966683341,0.7795109442,-0.1086584497,0.483602876,0.7353858964,0.5535998707,0.0254447869,0.5888535804,-0.5785588501,-0.1763424112,-0.0778223844,0.4177673577,0.5357693909,0.4084067472,-0.6851138335,-0.2817306876,0.3926147233,0.4971419182,0.7323849034,0.4906296429,-2.2607676666,0.2432851078,-0.0250753567,-2.6278003533,0.4837480953,2.1981044268,0.6007625533,0.2123181461,-0.7690127757,0.5434119728,0.6165777048,0.7570422972,1.4043530241,0.5805546258,0.3449734215,0.0554322633,-0.3750115417,0.5829015271,0.682330737,-0.5408061658,0.49609119,0.6992431913,1.0520279814,1.1763449931,0.855135003,0.192805051,0.6015610994,-0.0350957509,-0.0342538668,0.2425588983,0.1182384821,1.6387568638,0.0704434393,-0.1422542024,0.2991127872,1.2586808534,0.623827374,0.694411775,0.534261814,0.4686659464,0.5774918665,0.1732553255,0.4639320181,0.0649619564,0.1200198681,-0.0698282794,3.0857767984,0.7886573233,0.254715797,-7.1542071962,0.0974001224,-2.532486431,0.831171114,-8.1157546245,-2.8458539892,-0.5793019989,-0.9762936813,5.94079832,-9.7161018772,-0.3497666496,-4.6480668788,2.5837997289,-0.0490383227,-0.1624946604,-1.999457415,9.9754498198,7.9393788737,0.5550362978,-0.1047832938,3.7592760149,-6.2620435523,5.9581049259,1.2798489401,0.2423973555,0.6336600855,-1.7453480316,1.4287962472,0.5167142288,3.0904083591,-12.1364879967,-0.258792769,1.8940455076,-1.2759487905,0.6735322439,0.5370026628,0.6362464929,1.1122553624,0.9916096095,0.568709421,0.4129738005,0.8960894511,-0.3444779289,0.2534892849,3.6432198946,-0.8965367321,-0.3500911466,0.5766722596,-0.3076148166,0.4480066307,-0.1796781927,-0.3144639787,0.8116301777,0.9587668429,0.3966213304,0.6881212884,-0.2172933693,-0.5118859282,-0.2185251518,-0.3988885117,-0.0534103574,-0.1937810267,-0.2278854493,1.0341356763,0.1165459228,1.0529755034,1.7081190117,1.1534249046,-2.5033574483,-0.1221706239,1.2396761914,0.5855276303,0.3782796162,0.3461110708,0.1119080543,0.1514027564,0.8912620569,1.4066234165,0.0627434347,-0.51209266,0.133279916,-0.280045868,0.3211138302,0.0679043404,-0.053995893,0.2191420537,-0.6499287027,-0.0948322392,0.909097065,-0.5238194045,-0.4394959658,0.7972338109,-0.0594445514,0.279500128,0.001542604,0.1797374797,0.513552708,-0.0862552878,-0.0448141556,0.6833688818,0.9628152661,0.0695322509,0.5235745225,0.5704833184,0.2054969974,0.3907623804,0.118205868,0.4966698442,0.6065662939,0.4114761498,-0.0891550171,0.5501434786,0.2660987278,2.4650887191,0.1882540055,0.9424858177,0.3412100016,0.0084040545,0.0983723448,-0.0603129684,0.4518290367,-0.2922889627,0.3019615575,0.2379068038,0.4095385913,0.2056605935,0.2499738677,0.0559698952,-0.0311165542,-0.0058253146,0.1107827816,0.0546210236,0.753222085,0.2163215712,0.1012542947,0.6740035494,0.1977390458,0.2874092347,0.0573794036,2.6683950218,-3.8804733646,0.8724518711,-0.3107852872,-0.1231224273,-23.2853234444,0.5469572197,0.4273744681,1.325139554,0.6611542913,0.8351697495,0.3849083326,-0.0345363114,0.9863493117,0.2600488739,0.2286963263,0.2894866838,-0.7211838759,-0.599196095,-0.5064665804,-2.4545435849,0.8352171222,1.9195367755,2.8724646358,-0.2171898977,0.6421636742,0.0349737154,-0.0008210523,0.7788887261,0.4084013942,0.1825797087,0.4118391905,0.7974384436,-0.9980573132,0.0818083979,2.0112514794,0.5329076982,0.3573216606,0.7084200295,0.4785040181,0.6625739114,1.4936399571,-0.0844679313,0.3274163854,0.6821922165,-0.2863042991,3.1576285546,1.1719983585,0.5446554129,1.2409524886,0.5559786705,0.4733753857,0.0427793196,0.5783841605,2.1221563414,-1.5521627992,5.4419360923,0.9035060972,-0.1846359783,7.3430147263,0.5416738794,0.4556338697,0.576145018,1.0169571861,0.4513659787,3.1267462005,1.6099761493,-0.0202844417,0.025918548,1.9468434552,-0.530693503,1.3873226959,-6.7568339327,0.8899649973,0.8728713821,1.2552610424,0.4982496221,1.0601915475,0.4758778006,0.3874533567,0.6724104627,0.5194440651,0.3209589256,1.2277888771,1.2197354991,0.9802638772,0.3898172932,0.0947529742,-0.0499250268,5.5553278457,0.6355957941,0.0273845173,-1.2843707432,1.8916459951,-0.1812028152,-0.3005098847,0.7961189478,-0.197513258,0.0261980906,0.3309888593,0.8310416475,0.6955928904,0.2936973135,-2.8126452156,0.979673757,-0.3895321204,0.7013159345,-0.3175992047,0.0653102527,-0.4157012552,-0.4156888517,-0.3920806196,1.5299994078,0.3490774965,-0.4217543082,-0.1386590299,2.1198248319,1.2849104719,0.3048760407,1.4652758797,0.5217806432,0.7432231101,0.383303284,0.5094358261,0.5932057501,0.4520546006,0.1320927874,0.0572697854,0.5933087944,0.2305883483,0.4222015968,0.5239981261,0.4890394116,0.3208238262,0.3498531957,0.9662196749,0.0954705234,0.5207334529,0.0134575365,0.4404320426,1.6729896043,1.3349356813,-0.5151769256,2.6745496015,-0.1543828569,-0.3048831817,-0.7280305021,3.0670169678,0.5436379883,0.6579258083,1.8441125669,0.4918056967,-1.0178000549,0.2762516103,0.0341483095,0.499166174,0.1954817687,0.6526730369,0.6250844308,0.8733944614,1.5121466919,0.0339088062,0.6060158377,0.7739169892,2.7759103226,0.0148544409,0.9115223368,-0.1523466534,0.3166337367,0.2648268592,0.4384686952,0.615427657,1.1965580356,0.6490153626,0.9441344499,0.5734896568,1.0754885958,0.1524662252,0.2896482052,0.2496427286,0.9569015939,0.690514418,-0.478445949,-0.5087829153,0.3472742513,0.1301321636,-0.0681936548,0.0822393528,59.312376183,-18.0368368687,0.8847097533,2.7570267182,1.6324840898,1.0773497838,5.6191654178,0.5780744728,0.9839699146,-1.5644703072,0.4566420672,-2.4269175271,-0.3947220609,-2.279067453,-17.2164235179,-0.1506097826,0.2802060185,-0.1689942016,-1.5536040869,-1.435000392,-3.1791603608,-0.2112935251,2.5143412152,-1.3699938699,-0.4032730124,0.2478625048,0.5889235155,0.2395280515,-1.5876356651,1.2451717405,0.5780706731,-0.1502172711,2.9517572225,0.6403495736,2.6094300277,3.3649578379,0.4534537624,0.340885442,0.4036023528,-0.9578051251,1.470223929,0.6133596461,0.4364130782,0.563015972,0.4124569824,-0.8561883998,1.7360883084,0.151566538,-0.2375704232,0.2868410716,-0.6540085942,0.2704418991,0.5465863691,0.0087676045,-0.5052037361,-0.862571734,-0.9458783067,0.9759176212,0.0336404405,-0.545832941,-0.2292944246,-0.6508110576,-0.4561354196,0.0306479691,-0.1007436395,0.3884198083,0.6122796668,0.530367184,0.315759176,0.3739585812,1.1589860862,0.4439981785,1.3739334165,0.1904413508,0.1866394804,0.4678608479,0.2863291689,0.0616667248,0.4690771653,0.266036452,0.2065135519,0.4144129947,0.322813145,0.2254773436,0.5956911348,0.2044003222,0.2581946228,0.3392335882,-0.0340073738,0.3122162808,0.2966744668,-0.1176035378,0.4491503461,0.17392478,-1.0859139198,0.4821751611,-1.7799445555,0.060069903,0.5439056035,-0.0296297497,-0.0009607581,-0.2636832699,-0.0600126845,-0.5184938225,0.6393172829,0.5628685242,-2.372238998,-0.1586830381,-2.338083669,0.5333120368,0.1510056746,0.3761456459,1.0118328447,0.2989362503,2.2785213699,-1.214543458,0.7515485874,-0.7225724496,-1.341066165,1.3044958281,-0.5442331637,-0.1477562073,0.8741274701,-0.3765977828,-0.3196460734,-1.0287727172,-1.09226708,0.4986484321,-3.6929918058,-0.1532514185,-0.2228206854,-0.4143218406,0.0895778439,0.8645781795,-0.8792815093,0.3740745118,-0.5183647369,1.0900632686,-0.1238619984,-0.3129024578,0.9028700562,-0.3365026177,0.1140870053,0.1360739694,0.4384455308,0.4240812417,0.4054758516,0.6211462721,0.0978191014,2.1656531047,1.10292561,0.7675276195,-0.0975313951,-0.4548286843,0.0307450338,-0.6401320581,0.0718173184,-0.1759262603,-0.0952451145,0.9681516134,0.722640498,0.2268112267,-0.7340673741,-0.2858690538,-0.2357461462,-0.0503844362,-0.94470944,0.4835087475,0.5583837501,0.7403772267,0.3338236599,0.0015869563,0.2420728407,0.4373188984,0.8677326066,0.0910136725,0.1823831114,0.1723974005,0.5628353717,0.172410153,-0.1730159183,0.3650233904,-0.0499909581,-0.031779682,-10.4029319206,11.2930088998,0.3442028492,-1.3189616903,-5.7081650507,-0.2910558669,0.4268158733,-2.6529125756,-16.1029412585,0.9792585629,-2.3743017429,-1.779849943,2.5539367651,-4.5645286526,0.3698860203,-0.1372393521,-6.3748416256,0.5983419926,-0.0443062897,0.3028604811,-0.5621570433,-5.0303223088,0.0068281866,-4.0646308854,4.7990752406,0.9572289925,4.2072837884,-2.7088216571,-27.6165755178,-3.0573856771,0.2734004331,0.6059784948,1.4476481981,0.1516679873,0.0438062986,2.5934086211,-0.87542155,1.2993273048,1.5689766388,-1.0150224107,0.3669905205,0.2795357917,-0.1507071428,1.7620854939,-0.548311347,-0.7036705585,-0.0773751053,-0.0444041354,1.0677783372,-0.5652801273,1.8324803906,-0.317738022,-0.1814455352,-1.6625236839,0.0021142551,0.6597173014,0.3115309071,-1.8095317658,-7.5160216242,12.4747963631,-8.0205480429,1.2434067774,-0.6201399487,-8.8431240726,17.1078925885,-1.1866645874,8.2549899957,6.416106637,8.359162141,0.30239594,0.7675115773,-0.2468564362,0.418692755,-1.5565940736,3.4966401837,-0.0253439432,1.0700598542,0.407380538,0.7507949967,0.2149630791,0.5176678686,0.5364684234,-0.0460644313,0.1175352713,-0.1271413435,0.5114856823,0.312768709,0.445634793,0.2774597632,0.3054843999,0.2591236517,1.0782956212,0.4386163056,0.2306328541,0.3669413389,0.3271843055,-0.1404598776,1.032562017,0.5547976577,-5.8742984313,10.3001506707
   -0.1191124104,1.6498008195,3.3358025789,15.0829498166,0.4773338979,9.6060749227,0.4585298557,-9.6606119068,3.0543410287,13.9834274575,3.6243769677,7.115190367,5.0999148853,8.3578765478,0.8969482371,5.5650430884,-6.9455474939,2.7633649199,0.9936401595,6.1325010411,2.8537064238,-2.8563211431,1.770545425,4.6548831852,0.7700801262,0.0818546475,4.0382836409,0.573115692,6.1433651919,1.0642103469,1.7143460991,0.3703377762,0.4529755127,2.2731928663,0.1527764453,0.1829115101,8.9818714993,2.8100622159,-3.2294702354,-0.0220996312,0.7638570327,0.1073184295,0.2888018353,-4.1421244842,0.6363351511,-1.8901547648,-0.219465168,-0.4863055895,-0.2158584494,0.4718394836,0.1736638677,-22.5670353192,-5.3559871431,-6.1008296905,2.2442574342,21.8149527335,0.6313295296,0.9900559454,3.4395752461,-6.4800834949,62.5573911423,-1.6302852167,0.7302197213,0.5196927559,0.7689881885,-0.117008507,-0.2232187838,-1.6256193833,2.1563299998,0.6261006895,-0.5112603402,1.2621107097,0.2459874073,-2.0453595616,0.0994238522,0.5030941562,0.3116649371,0.0367951335,0.045164767,-0.5217736014,-0.9967908993,-1.759418116,-1.0938940569,0.1868664042,0.8244644388,-0.4387991038,-1.1734884581,0.2388187748,0.093655499,2.8358217142,1.0762134298,2.4029178211,-1.7854905699,-0.0388303973,-0.7585354139,-0.0679697107,0.420438595,0.4114562312,0.0083145823,-0.711198138,-0.4872003427,1.5321199615,-0.8370146302,-0.7798931233,0.0527679021,0.2346286998,0.2005779161,-0.2465173618,-0.0565067633,1.2137329802,-1.0740487946,-1.6269115908,-0.7152092336,-0.2629361387,-1.8148646493,0.7964048419,0.6561322078,-0.0574544317,0.4459251084,0.1495109346,0.4601453517,0.1915272363,1.4554341596,0.2028032236,0.1991396562,0.7821941368,0.2039458788,0.2086661136,0.5684427701,0.4977106841,-1.0270965915,0.8648135929,-0.6672075149,0.0416993735,0.5152624378,-0.3366727389,0.0274961409,0.3355446377,0.4526511443,-1.3662792975,0.6217920127,-0.1230244987,0.691511825,0.1279216049,0.1001707769,0.5559334106,0.1949512498,0.1733283858,1.2796301923,-1.7344458878,-1.127858306,-0.4656188388,-1.083869791,-0.8344054889,-1.0309716039,-0.5205656929,0.7197392195,0.8660203411,-0.1225137348,0.2406019154,-0.7184447532,-0.1908147393,0.4376846747,0.9321386439,-0.1510866688,0.3519856317,0.2891127226,0.0981496648,-0.0785993612,0.2169734695,-0.0440636129,0.1337723678,0.4179286616,0.5441708356,0.2929460392,0.5527375636,-0.0457810708,0.421185555,0.5517231384,0.2398574741,-0.2658725421,0.2381512641,0.3792354427,0.1505180717,1.9460559627,1.2457682949,1.8747405976,-2.0761698147,-0.2459554199,1.5995955156,0.659583199,0.1976607515,-0.9157215101,-0.5281484147,-1.0456854362,-0.2971294611,0.2061092702,-2.2155907053,-0.1202760226,-0.2097198348,-0.0672122577,-0.0047878724,-0.8487066431,-0.0605109338,0.7996418279,10.4374530457,0.1655264342,-0.0084992862,1.7899028874,0.1906702725,2.895710035,0.3670441419,0.7550500413,1.0778067884,0.2577438624,-0.0470564957,0.3996906046,0.706630892,-0.1072201785,-0.9223554977,-0.8457172493,0.2100904287,0.2065060873,0.6212980011,-0.5980328825,0.3298968242,0.9419698425,0.5781199002,1.0154535234,-0.4442968228,0.8107956635,-6.9459852842,-0.7696155389,0.2847866292,0.4748625183,-0.0920826883,-0.3985232955,-0.3346561216,0.0250144347,1.2287443176,2.4511294952,22.8362094541,1.090466624,-0.1287887779,-2.0934638372,-0.0488513652,0.0163156907,0.25523811,-0.4816430873,0.2964998196,-4.2335469166,-0.445009824,0.8207076879,-9.1485769394,-13.2818613675,-1.3561240947,0.9610231627,-0.1687508434,1.1415515367,0.3361233323,1.001819634,0.9722835737,-0.0295258937,0.9736358092,1.0983112488,0.6178338476,0.0442641767,6.9469509093,2.6159753537,0.3050476523,0.6635129888,0.9588508515,0.9410146612,0.1515283918,-1.5080483786,1.2811238367,-0.5539357403,-0.1849909457,-2.2358253169,-1.547936094,2.2963769415,-3.6346642568,-0.1769646109,-0.0630478656,0.9399772406,0.141142026,0.8019692504,1.2792925262,0.7114928395,4.8254821257,-0.059016265,0.0547168265,-0.1435433356,-0.5508775021,-0.4947476938,0.0910469812,0.1062053583,1.4358380947,-2.8688298401,0.0666015288,-0.1377560754,0.0959518764,-1.3560262388,-0.2942229075,0.6143153159,-0.2695886019,0.4994672276,0.4420358791,0.1287087609,-0.1557881916,0.1341243803,0.2579813216,0.2057638192,0.4140565838,-0.1378886238,-1.7207506377,0.3950646475,0.4351485368,0.03572054,0.1731264368,0.194935646,-0.0252547876,2.0029215824,-1.7067221848,0.7137736062,-53.275254022,1.3563605968,10.4605815908,2.6659090516,1.6625073985,-3.9266786114,-1.3231914702,-3.7019191921,-7.0016929034,-4.6905968634,2.1472591061,-1.05531544,0.3439886255,5.319312928,-0.4080561604,5.7324444116,-0.3573868374,-0.0629450884,-0.089087532,1.4545634812,-6.8300185816,0.0491874665,-6.4996054892,-4.4738191957,0.873972734,1.9060559032,0.9585865204,13.5235607637,0.9322831716,0.9061341856,0.5446610868,0.550340853,1.5439574497,-0.5164314257,0.0434529356,-0.1330517031,0.7137743233,-1.3171325078,0.6432333581,0.3843110066,2.4823418492,2.9869862103,1.9487506137,0.1209590462,-2.0463484767,3.2037412395,0.1942327973,-35.4894667384,3.2003209601,0.2172520891,0.0940688803,-0.1697520693,-1.1906437681,-1.2195274027,-2.2461910323,-3.6894460806,-5.7691500094,-3.521757956,2.7963882718,-0.6452868431,0.0251080603,-0.6285680775,-0.3856139552,-0.4602157281,-0.575164298,-2.577311747,-0.4859102252,1.7956218289,-0.5544741792,6.6251967136,-0.1367900209,1.6677313403,0.1298512078,-0.8890041573,1.8797902209,2.2356137947,0.6496919572,0.9452336357,0.1759841889,-0.4312876288,0.302384518,0.5691675956,0.9903220327,0.4027071855,0.834053934,1.0610867723,1.6756645056,-0.4223149074,0.9537985131,0.6228809376,1.7377461776,0.8135145847,0.1765705365,-1.2345840126,1.616668139,-1.1819891714,0.1125590706,0.2479621471,-0.4305999263,0.1051559481,-0.1617082385,-0.5171598222,-0.3221168988,0.1018880467,-0.2595431554,0.5311725701,-0.2150745919,-0.1940617911,-0.4937818112,-0.452568044,-0.4965020665,0.0203674629,-0.3133056072,3.5075745547,0.6455206029,0.2305791745,0.0006368297,-0.3622173083,-0.5916630146,-0.3856211548,1.3130953553,-0.1738487339,0.4807948355,0.3388644388,0.0754213083,-0.1294323382,0.6833317653,-0.084779823,-0.0005575161,0.4394931422,-0.3116901863,0.3918041728,-0.0462988211,-0.1017092173,0.5874641108,0.633544414,0.3506084064,0.1964327407,0.3929869934,0.1708492093,0.9085933007,-3.9595234966,0.9923719289,0.4982049632,-0.0358384337,0.7348821656,0.6819849786,0.9129018477,0.1450531143,0.6076035285,1.3752553111,-4.6594889147,0.7644404822,0.941416441,1.2433504351,0.5319252421,1.3605865563,0.5403881357,1.2043966835,4.8664597592,-0.8571404627,0.8339101941,0.2391209838,0.8320426136,1.1974838974,-0.0431429159,0.4881334739,-1.7962709562,1.380285069,0.0682654474,0.1980186375,0.7146576489,0.558488326,0.1218323095,0.1478282801,-0.0793700232,0.4324917153,0.3680614725,0.1758885817,0.8653865624,0.5608478852,0.7000670835,1.0055550784,2.3518661454,-2.0997671426,0.4112447727,0.3425063048,-0.9083301279,2.552319764,-4.5073577018,-4.4369711888,1.8329849685,-1.5060614886,0.6659118209,-0.2877127633,1.7625758005,-0.1321908899,-4.7453742892,-0.3705477893,0.5965173386,0.3453884626,-0.3442552564,-0.1156152524,3.5261481406,-0.5774367826,1.9247510692,-0.1650755022,2.4737297043,1.6304627438,-1.35620203,5.4152982069,-5.2687317672,-0.2674460532,-0.1151845638,2.2654407992,0.7705249341,0.2011966703,1.5168532474,-0.0306348168,-0.1605088676,-1.6602756768,3.8338104958,0.63985226,2.49465691,-0.8070011418,-0.0454508567,0.1936861412,-0.0554953811,1.4430087392,2.627213259,-0.2754598474,6.8910644706,1.5633854581,-0.6300297422,0.2384140041,2.2877321656,-0.5251892411,0.183882213,-0.0734030362,-2.2917882443,0.0425084958,-0.4210923661,-0.1038868519,-0.7367119309,-0.3439149675,-1.1224578322,0.9587595154,-0.455223842,-0.2665351251,-0.3165783711,-0.5068830991,-0.7603005046,-0.751756673,-0.6187493035,-0.8231279672,2.1504139043,-0.267880898,6.0253182806,-0.0923727602,-0.9612618398,1.1893666318,1.1003527712,-0.0564391341,0.5106313205,0.4515907364,0.2962105414,-0.0905935504,-0.8481013686,0.1670712908,0.7516227931,-0.0143447947,0.7941296932,0.0219395879,0.0158373983,-0.1708262809,0.0857323942,0.7517881189,0.8228801769,-0.0349223268,0.9101551717,-0.14370869,0.7528639108,1.3946016858,-0.5240703434,-0.3744518896,1.1459475088,0.2748552921,0.6815941278,0.4516830079,0.2659316656,0.6995722479,0.5810236787,0.5274430195,0.8172500287,-0.281570624,0.4242128084,0.0772759127,-0.2849546951,-0.2956024032,-0.0679174497,0.1097471514,1.2485391363,0.0849039036,0.1477719574,1.4687501685,-0.6146137781,-1.6488974412,0.0701714583,0.7860313411,-0.0215801006,-0.0304310401,0.1928156494,0.1016152843,0.5155232893,0.7891084756,-0.3985215344,-0.8630963053,0.4165616223,0.2944082851,0.0000737366,0.5368495789,0.1007394445,0.9941554817,1.7312820174,0.1980172395,-0.0276984006,0.2705455329,0.4424955102,0.4501934192,2.971900472,-0.570287497,-0.3647625252,0.4642822437,0.0603829245,1.2519478952,1.1387984757,0.956739323,1.1747385685,-0.8088513411,0.301313152,0.5451299693,0.0791068632,0.0438610756,-0.5875533405,-0.4057852629,-0.6299693351,-0.5946061017,-0.0619837823,0.295146509,5.660024077,0.4016102758,1.8999718969,1.1888618276,1.0123230521,0.5864076135,1.0803846478,0.3289698299,-0.0219710194,0.1615241528,0.6529554444,0.6573960403,-0.0734307889,1.0719987578,-0.6913738875,0.8256877075,-0.1381794252,-0.1619134126,0.1592597447,0.0063556742,0.2079787908,0.8528763089,0.1545431604,-0.0428003456,0.9713927572,0.4839486846,0.8563020996,1.3764611756,-1.3463998233,-0.00500025,-1.7374687513,0.4597877765,0.4683342205,1.0028038095,0.5378877937,-0.0313141575,-0.1414168312,0.7395422656,-10.1289866613,0.2664703969,3.0402521702,2.7217180184,2.0491554953,2.4571645484,11.6226814256,16.9972580563,4.6322328668,0.0302494004,1.3496009598,-1.6898639817,-2.875277453,0.9121234695,-0.0657174273,-7.4502981865,-0.1043847015,0.946073795,0.5753715918,6.3825238291,1.2639283614,-0.4364612068,1.1033145022,4.1030628693,0.7377118399,0.8769419857,1.2775712107,1.1015796289,0.775385002,-0.3005174896,-1.4129531604,3.3675198142,4.8736821945,-2.396459272,2.7117099377,-0.8039422464,-0.1091016939,-0.5585836635,-0.549534313,-13.5357604673,0.1248677962,0.6043977266,0.0887913505,-18.702320914,-78.2204982517,-11.8014323487,-53.1631905373,0.6831854509,-2.5616287224,2.0165130842,0.00237043,0.8056208327,0.1499287739,-0.0069240298,0.8795473031,0.5995085107,1.1308234602,-6.9384415572,4.4191288298,5.4487929897,-22.8655312507,3.9980979964,0.4488460951,0.7307364872,0.3676032381,1.3130304536,0.5447409264,0.6625914843,-1.0184501541,-2.8208221491,-1.153240407,0.2976740926,0.3685108898,-1.6817937132,0.6580764045,0.5533077304,-1.0280056118,1.6983091905,0.5264840384,-0.0559798259,0.5931710842,-0.5103311871,0.2192877867,-27.7872204556,-29.4333775364,5.6238904778,2.5765241419,4.0929444656,-38.24820653,-1.7310689044,-8.0514483697,-1.9903997937,10.5959128296,-0.817056449,-0.1039109505,4.0131346738,5.453164742,1.0769134453,0.0060680802,0.2937436193,0.1556606703,0.4296421268,3.7913172574,0.7067340127,-2.5865325247,4.394434715,6.6443021508,-0.1557235572,3.5044848368,-1.4693702053,0.4903631071,0.638952086,1.9964792435,1.0409509302,0.907431786,-1.39240669,0.796948976,-6.2405857484,-0.8676544711,-1.4691144343,2.8498093331,0.9606684041,0.8280066672,-0.5453094849,-2.0256671437,-1.8023417969,3.2989835403,-1.8725155355,2.7599356966,-0.766359241,1.3626623912,-0.2325016801,-0.0175970102,0.4574396605,-0.0419311105,0.2063894713,0.5567504624,0.0886320684,0.1431770788,-0.2014500621,-0.0999183263,1.6671395425,-0.1662824249,-0.6562981873,-0.4595402905,0.2013342941,-0.2997559395,-0.0136296137,-0.3315491755,0.3620358083,0.1696409798,0.2542544601,-0.5633964817,-0.097378132,0.9261949648,0.6623902605,0.7527574388,-0.0970617853,0.6615996365,0.5773556126,0.2285266123,0.2713059783,0.6590658586,-0.0206760249,0.2611837946,0.5244047333,-0.1038941295,-0.0423230337,0.2378659038,0.3470744024,0.2149208294,0.3999234244,0.0027462051,0.0888962999,0.4202434279,0.4034794094,0.8230155813,0.3066592061,0.9716691299,0.228342636,0.0430691775,-0.3459474929,0.2778636136,0.1899125897,-8.0298194864,-0.3082307309,0.0055509581,0.0229694576,0.0475384055,-0.0811195768,-0.2085368911,0.2941701274,-0.8932674769,0.1521893898,0.1224390572,0.592241963,0.2819566051,0.7553229395,-0.1620261632,-0.230822038,-0.5108837405,0.8014436331,0.6634610986,0.564204824,0.1739503869,-0.1240335509,0.2834718022,0.287995569,-0.0338031596,-0.7511657855,-1.4188852509,0.3582825726,-0.2628032952,0.6982762181,-0.0219931871,0.1991152239,-0.4249448147,0.336397839,1.0914537438,0.766090924,0.6317150991,0.5861929975,-0.1044685435,0.0823388485,1.6010158684,-0.8077216855,-0.5905291318,0.2124834625,-0.0143827617,-0.1031119319,-0.1047468195,0.4729332296,-1.6884131946,-0.8436625344,-0.8629730994,-0.7133760934,0.368006982,0.4820605253,-0.4127137778,1.1844219994,0.2617639358,-1.1211711541,-0.4937493995,1.0878573948,0.1634877361,0.089176428,0.7806793678,0.3632982461,0.6203741966,0.6258365091,0.3881245725,0.1942004597,0.893300849,0.47246359,0.2641748126,0.9790135471,-0.0827949866,-0.3206325162,-0.0169699901,0.6293829112,0.2105541698,0.8857767929,0.5113308212,0.1643777066,1.3239360586,-0.1322709253,0.758968384,1.1158207014,0.5495368562,0.4012561699,-0.2100326737,-6.8190429872,-0.7189114888,-3.967039497,-2.149656607,0.8446843488,-9.6212772745,1.3948702306,2.3056207791,-21.4500583045,-5.2489983824,-3.7676291573,1.2068558811,-0.6449587472,-3.4327659998,-6.3809944377,-4.5139209861,-2.2063251072,-3.1735765562,7.2713694669,-0.6048262349,0.5655192443,9.1706332813,3.4160801127,4.0709802595,7.3400269984,-1.0344908112,1.1102350368,-0.3227268349,-0.7080494544,-2.7856014801,-1.4134511259,-0.2900721827,-0.3289696852,0.3759747816,2.0636833318,-2.9842890438,0.04274449,-0.1698456333,-0.3724050399,-0.781337367,-1.5595686794,-4.547903517,-0.7017959571,0.2774022345,-0.7085420875,1.453731037,1.3355904514,1.7532189812,2.3392212709,-0.3728495583,1.2758911997,-0.2074307264,1.978734344,0.6376414771,1.3083126375,0.3929339031,0.8340656623,0.5419054472,0.8756704358,-1.1587948888,-0.3149654821,0.0160983672,-2.0517416169,0.06204421,-0.3210570126,-0.3500239805,0.2402822032,-0.5210860709,-0.2739179098,1.0686614587,-1.4357873665,1.2245489741,0.5633823762,2.0296724604,0.3570447072,0.6403224223,0.110221555,0.36006363,-0.0683081957,0.4369378967,0.3414042774,0.1053366346,-0.0402746725,-0.0724480858,0.3297980193,-0.1084170213,0.0380247588,0.2108883773,0.7648803524,0.0623268148,0.0742762413,0.2995979357,0.0244407732,0.1732754159,-13.1253627003,0.0120415498,-0.1639931393,0.8097576996,-29.7088313304,-1.8015750091,0.6960599763,-28.1150142482,3.4119936147,-17.8574664653,-6.5019950252,0.3556196183,-0.4377821754,-0.4093027396,-0.1110993073,0.0817053347,0.091684835,-0.2396377869,0.0361082607,-0.5535339126,0.9477167121,-0.2755451018,0.1098530648,0.8679459091,-0.1755145364,-0.13537254,0.4841243913,0.1084084135,0.6048693985,0.1422779086,0.1359067633,0.0255771272,0.5431695476,1.3498155685,0.6909075646,0.1967462627,0.547275897,0.4154771653,0.0620862032,0.2333647137,0.4892876273,-0.083729731,-0.0620347142,-0.2904192269,0.5562684405,0.1518632101,-0.0169021289,2.1712292757,-0.0563927931,-0.5787521498,5.8676408902,0.5747943534,2.0169885663,0.9774195093,0.2344542072,-2.0108538644,-19.1571689547,-0.3609068089,-0.9368066401,-1.7832238687,-2.3239878059,-0.2177958381,-0.2023754087,-0.8517468728,-0.4275722996,0.7544649668,4.0901206107,0.4227889914,7.3329760585,-1.5533599274,-3.752810903,-1.1838707456,0.6366026678,1.037555027,-0.318682735,0.2956045982,-0.8269357422,2.1949592105,2.0948151531,2.0532552125,-2.9329893601,-14.1140684318,-0.2560643539,-0.6482859302,0.3258279697,-0.1827603711,0.4203154743,19.6043742277,0.3223553301,-3.7856648653,8.1027760805,0.2775699711,-0.069245618,-0.1952475197,0.9331588599,0.8762704663,-2.3072335669,0.7634754598,-1.119228643,1.7129425546,0.3399590565,-0.2642167748,6.2698692164,2.9456333978,-13.0772723585,0.5411518334,-0.7205725314,-1.8325531448,0.4393684319,-0.648177222,-0.1309049554,-1.8075131159,-0.000195434,1.4596602289,0.8031373536,0.7671523547,-3.593445962,-0.3071085114,-2.6585295685,0.4578473046,2.0407894521,1.039066707,0.4549454127,0.4776490522,0.3487365903,0.3166921201,0.0151433954,0.5127060982,0.3717069095,0.6011639627,0.4680924116,0.0703348077,0.638055127,0.2712806149,0.8340786062,0.1543838432,0.4692620196,0.4816042041,0.3837947777,-0.3393154569,-0.5498392904,2.7846085269,-1.9122469312,-0.6728589943,0.5099012241,0.0814758388,-0.1130577364,0.4409035751,0.1187642346,1.2604280644,-0.1592276402,0.4352262791,1.1792517576,4.0466091463,0.1179488714,-0.6168217292,-0.5289199903,-0.1741145191,-0.3681937701,0.134616114,1.3308879374,1.0152016202,0.329881335,0.1482661731,-0.4276168821,-0.4461319976,0.096736197,1.6191830346,0.0077643059,0.0818332916,0.5257640715,0.5639961507,0.1280799944,0.1347802785,0.4402667716,0.3241936548,0.0336224479,-0.0847656207,0.4419843096,-0.0374512101,0.5436193243,0.726543517,0.3507601984,-0.0067084055,-0.3833952509,0.6485305958,0.3870369377,-0.4493851796
##end
biasActivation=0,1,1
[BASIC:ACTIVATION]
"org.encog.engine.network.activation.ActivationTANH"
"org.encog.engine.network.activation.ActivationTANH"
"org.encog.engine.network.activation.ActivationLinear"
