encog,BasicNetwork,java,3.2.0,1,1398306053145
[BASIC]
[BASIC:PARAMS]
[BASIC:NETWORK]
beginTraining=0
connectionLimit=0
contextTargetOffset=0,0,0
contextTargetSize=0,0,0
endTraining=2
hasContext=f
inputCount=100
layerCounts=1,151,101
layerFeedCounts=1,150,100
layerContextCount=0,0,0
layerIndex=0,1,152
output=0,0,0,0,0,0,0,0,0,0,0,0,0,0,0,0,0,0,0,0,0,0,0,0,0,0,0,0,0,0,0,0,0,0,0,0,0,0,0,0,0,0,0,0,0,0,0,0,0,0,0,0,0,0,0,0,0,0,0,0,0,0,0,0,0,0,0,0,0,0,0,0,0,0,0,0,0,0,0,0,0,0,0,0,0,0,0,0,0,0,0,0,0,0,0,0,0,0,0,0,0,0,0,0,0,0,0,0,0,0,0,0,0,0,0,0,0,0,0,0,0,0,0,0,0,0,0,0,0,0,0,0,0,0,0,0,0,0,0,0,0,0,0,0,0,0,0,0,0,0,0,1,0,0,0,0,0,0,0,0,0,0,0,0,0,0,0,0,0,0,0,0,0,0,0,0,0,0,0,0,0,0,0,0,0,0,0,0,0,0,0,0,0,0,0,0,0,0,0,0,0,0,0,0,0,0,0,0,0,0,0,0,0,0,0,0,0,0,0,0,0,0,0,0,0,0,0,0,0,0,0,0,0,0,0,0,0,0,0,0,0,0,0,0,0,0,0,0,0,0,0,0,1
outputCount=1
weightIndex=0,151,15301
weights=##0
##double#15301
   1.6762699883,1.7288314454,0.532062638,0.6443295315,0.6926403767,1.9781816823,2.7219858167,-0.1026558483,-1.2978297028,-0.401637229,4.6397030304,1.7320836791,3.0701387594,3.5820429814,-0.506581944,2.4727267962,2.1268209167,1.2698433496,-0.7212434624,1.3374680369,1.3222770471,-0.6963584283,0.4030459741,-1.3150830124,-0.6882268473,2.3555778774,0.2685761683,2.2438434107,1.6974920434,0.5163458315,2.1980249464,0.8554245902,2.1002144226,0.2092190357,0.2867012415,0.9309622185,1.2045595241,0.7860116579,1.1195938005,0.6187163113,1.3431457721,-1.002206886,-0.2435684172,-0.2289348405,0.6586892066,-0.0833288791,0.4650504485,-2.0523682362,0.2085800829,-2.3846698246,1.982325483,-0.3186714152,1.403884689,-2.5017427344,-0.9272314026,-1.6175477243,0.203995452,-0.1272904659,1.0876061687,-1.6389778118,-1.720699483,-1.6015277896,-0.0082604311,-0.9905126005,0.2572803812,-1.6366711754,0.8224598615,-1.1932622434,-0.6476686543,3.1059095029,1.7521229678,2.6800354749,1.2964010738,1.4892064802,-0.9127889962,2.5640462684,0.936168152,1.716539421,0.7482921993,0.2755775452,5.2930288594,-1.622872821,1.2093584681,-0.8710553361,0.0445546195,0.3106661773,-2.469142031,2.5000662396,0.6303604764,-1.5305612713,2.4584572167,2.307450483,-2.6885201608,-1.3775322041,2.9291538885,1.8951664604,1.4703654799,0.8891111592,0.0278297756,0.9767038245,3.1785397663,-0.0907738457,-0.4293301633,0.7693082467,1.9306961055,0.2036665484,1.6570916508,-0.6340633712,1.0277030723,0.0623589208,2.7289161048,-0.3935875372,0.6864928615,-0.4724114757,-2.3455236931,-0.6893318135,2.5622156632,1.867359208,-0.5337960241,1.3751459301,-0.8126790852,-1.8421779576,-1.3470583023,-0.3815138134,0.6633773424,-1.0852425665,0.3428257285,1.7445681455,-2.2055284807,0.9319714984,1.8590447793,0.6297731283,-0.4740732337,1.0392089105,-0.5608800541,-1.0629728633,1.7488628624,-1.9161919297,0.128568844,1.2617366744,-0.1502333985,0.6688217639,1.0519045755,1.6341646056,0.6247743579,0.1556935698,-2.6721156048,2.0391043878,0.9907656596,4.3118308347,-3.00419458,-0.904375722,1.99263911,1.0149195946,2.5798674967,-1.2605537696,1.7731586476,-2.2348383676,-2.6167328288,-0.1652320683,-1.4437594981,0.6804848395,-1.3576247166,0.4438397961,0.5998651636,2.3834842498,0.4297428711,-1.0588085144,0.9367497508,3.4443354347,2.4266704023,-1.5236584798,1.8170794479,-0.2394456382,2.0985946022,-1.7914088163,0.8440757692,-0.593592812,-3.9300211491,2.1240896298,2.0128538291,2.1107654526,-0.3544069217,-1.6846890545,1.8986941389,2.8039598238,-0.5682779811,1.1656263641,2.255852719,2.3315178505,-0.3869683109,1.9229194604,-0.1868173244,1.2620232336,-1.3333932633,1.5250680878,-1.4454483548,-1.4653239433,1.1740775903,2.0685007752,2.0621478156,1.739415217,0.0526832023,0.6876830497,0.4777444153,-2.3440091861,-0.3200193225,2.2395496826,1.1122125326,0.1815118996,-3.08384903,-0.5983620911,2.5403445623,0.9859781033,-0.1797912363,-1.2711301124,-0.7955013962,-1.2653796551,-1.0485762011,2.5307951727,2.474078358,-0.4834726209,3.3535959189,-0.3226715878,-0.0671892832,0.0967639033,0.9015477287,-0.2127277879,-0.204640345,0.8945577603,1.8438843594,-0.9653237316,0.1218104198,-2.8082516924,2.4215926354,1.9529168778,-0.8622314741,1.8291683878,-0.0620113373,0.3537960815,1.525075556,-0.4065053448,1.5142250019,2.2144591816,2.3934399976,0.4878746563,3.5725357981,-2.1352052472,0.8785488488,2.1993625195,0.8237144582,-0.7333028587,0.4058888727,-1.9021795789,0.5441429093,-0.9743904283,2.9711349707,2.0841776743,0.1978681822,0.640736627,-0.5032808656,-0.1469203372,2.4682745024,0.3249596489,-0.1001841416,1.8267007071,0.1019890437,0.0541543269,-1.0749223115,-0.4074836599,2.0079408954,-1.6988872961,-1.275139678,-0.2449135631,0.552543817,-1.1356440162,2.2180305537,2.4605117406,2.2817469526,2.375118526,-3.0014670057,-1.325946908,0.7972698403,-0.1122669106,1.8318725869,1.2157164441,-0.0805203118,0.4368807123,0.6196186773,0.3004189565,0.8198662255,-0.8160765255,2.6483249618,3.1233757586,0.9137378827,-0.7897715547,1.3153509847,0.7314101442,2.0824497281,0.5614198565,0.1945037656,-2.7714981323,0.8615960232,-0.4050277444,-1.2256714767,-0.8576388841,2.8242700961,1.3317099373,1.190644907,-2.0474146628,1.8450860259,-1.2806915355,0.6141478485,1.3643101847,0.1452103745,2.376828639,0.4855026769,-0.5551129405,1.0576140398,-0.9808704997,1.1672815098,0.5285528939,-0.6952009943,1.0116119059,-4.5450533843,0.4630196164,0.736950981,-1.0990825415,-0.4105125845,2.4369596544,1.3462978987,-1.6711555168,-0.8039936894,-1.8821894904,1.4316722113,-0.6141838564,1.3387105874,0.6692334849,2.7157143871,1.2528629112,-0.8717421413,3.4733642765,-1.0695277021,0.3227772828,0.1275657195,-0.2986786412,1.9936051928,-0.7378579408,1.1581156166,-1.4630828601,-0.3120675802,0.3126460602,-1.6895990188,1.4607697927,-1.5485833937,-0.5706382329,-3.3834602589,1.1545594758,1.8152880965,-0.2783915507,-0.4482116753,-1.1444467984,0.0092993195,1.1057709438,0.2272180123,-1.53965828,0.5930680181,1.953014505,-0.8221502989,-0.7263579909,0.3015803373,-1.2618172599,2.270997745,0.7753606471,3.0194612087,-1.546982974,-0.7020310151,0.0513102905,1.262347408,1.760785855,1.1182586741,0.9965482222,0.6753492804,-1.4298502452,1.1056749054,0.1320163729,1.8084865974,2.2063246748,0.3577976414,0.0559768135,-0.0710538841,0.272532803,1.6108254158,0.8883219121,1.8088988354,-3.623067342,0.0637874233,-1.2108964385,1.9107406478,-0.8194947404,0.0344373099,-0.9120577659,-0.7443697811,0.2942430627,2.0450519635,-0.2310426752,-0.9215340963,0.752210937,0.2931936753,-1.0499225564,1.6670420754,-0.1185968761,1.968189322,0.4574664058,1.4697039094,-1.501628954,1.9484478928,2.5194083821,0.8485943611,0.110055701,1.5589303647,-0.0232948767,0.0683994259,-1.0882130908,-1.3874402715,-0.4719809186,-0.7108065625,2.0732181767,-1.1789105551,2.1385980858,1.3745898753,-0.4283991392,-1.268342551,1.0370622424,-0.8168920916,-0.0315021001,0.9972544414,-1.467291936,-0.7801679571,-0.4680327286,0.2012907529,0.435932529,1.4032290431,0.9292625578,-0.348707884,0.3979929498,-1.6021271506,-0.7444355707,1.0064059051,0.4587491094,1.727535024,0.8878063023,0.3078733328,0.2700390095,0.7066636249,-1.091034555,-2.6925809108,-0.142333769,1.8993770107,1.9148486689,-0.8865694622,-0.91791069,1.2624499726,-0.9385873003,-2.133166544,-0.4191384072,3.0090791155,2.5898453769,1.1501586183,-0.6340807418,0.4738672511,2.3396050599,-0.6600443153,-0.42258432,1.9519269373,-0.3901785975,1.3231611478,0.6567522603,1.9972364862,1.0194299482,0.9321564289,-0.5664108842,0.6636892165,0.2841362518,-1.1065220555,-1.9732158777,1.3230593781,0.7576456458,-3.8909379904,-2.0585318644,-1.0643679817,2.1318216348,-1.2323612127,-2.1573863063,-0.091941094,-0.3650410412,1.5893737492,-0.6195047282,-1.8216700934,2.523018041,0.5758573734,1.2927378236,1.2397486646,-0.501792215,0.8412011112,-0.2196945482,1.0552679869,0.7909641598,-1.1853992545,-0.4218564562,1.6592045037,-0.4896960375,0.1302677865,0.4712954284,1.8572792927,0.3914768122,-0.4859510931,1.6616672901,-0.8720080939,-0.7907172135,-0.3370006002,-1.9858556526,-0.6093834738,0.5664981193,-0.590679848,-2.3695281009,1.8372590573,0.7048734135,-1.7425555679,2.2388255795,1.1212397871,0.8890462435,1.9404113145,-0.9216308075,-0.4273854779,-1.5742048771,0.0047957054,1.2285989305,0.58093381,1.8580036565,2.2759347086,-1.9803339308,-0.8430900647,-0.4735689849,0.466320888,-0.4611952291,0.33711656,2.967902891,2.1887546834,1.0365091865,1.2525301453,-2.1141539569,-0.7469376945,4.1345712778,-0.8929548354,2.2886102262,-0.5333421537,0.2478911718,4.9228222907,1.2590528968,1.9578183144,-0.9609220527,1.6074718767,1.9130511493,-0.5930323571,-0.2526368256,-0.7551030335,2.905025849,0.3522917759,-0.0033144126,2.3671660449,2.0569366533,3.2487046102,0.8749192868,-3.1408833443,1.0903632979,-0.7988547081,1.3398962977,-2.0656660024,-0.9787219213,0.5245392861,-0.6780948325,1.8461652934,0.1324389523,-0.8414479415,4.796584585,0.6315154526,1.5735135318,-2.5277424401,-2.2932158429,1.9793572264,0.3145791067,-1.2372385953,1.4736373358,1.4644863021,0.4720703299,0.8894054777,0.4509755087,-1.8636625393,-3.2636737688,2.7803327368,-1.6265743091,-0.0653776218,1.2317487385,2.7629941676,-0.2073923524,0.4913253682,0.6903516845,-0.4716629833,0.8767811685,1.1298485664,1.4068621904,-0.1177938888,-0.7985590681,2.5983696152,-1.4097209187,0.3104306584,-0.3127548175,0.9642214159,1.7135426792,-0.6502538097,0.7572151439,1.2987914959,0.1671748392,-0.0852395996,-2.3925477617,-0.0719145526,0.4993643979,2.7282403755,-1.1931474156,0.7593299631,-0.0449861779,1.7653320211,0.550720648,0.8824822938,1.6496804626,2.5448327793,-1.3569885065,-1.5815600121,0.1737751963,1.5752023945,-1.8495942201,-0.9521025772,-1.3967464287,0.6785247239,1.3549885879,-0.1812084739,3.543930685,0.2927269359,0.5301722183,-0.439056877,-0.9697900076,-1.4303842088,0.5071217615,1.6397896046,-0.354025913,0.1489366511,0.2477966812,1.7107289293,1.9181807233,-0.9466456195,-2.3209789538,2.2050188705,0.8136249113,0.5375373649,2.6210835391,2.9691539766,-0.1273392295,-0.2224991478,1.7917907335,-0.3051644287,0.1679616534,1.7985740849,-1.0198019694,0.1592099935,-0.2817923219,0.4552852098,2.6095563938,1.9256786728,0.9419596791,2.3316315267,0.1309190481,0.5440144292,0.8422949753,0.2572754381,-0.8014688329,0.7674702788,0.9359089473,0.2304404032,-1.8948177069,0.4209474179,-0.1474258281,-0.8393874391,1.336219316,3.078466242,0.5095125455,-1.5695549114,-1.2173293569,-0.8440451845,-0.6730265965,1.09322241,2.0357810452,4.2469194361,-0.3750043814,0.3525320967,0.2576782322,0.9946679865,-1.5754445192,-0.4203823065,1.7420326849,0.0856155304,-1.0882070864,-2.7484457868,-1.894300605,1.5290904557,0.5935522812,0.5197445159,-1.658821435,1.5097080302,-1.2179759154,-1.2112484813,1.400441045,2.1888975472,-0.5705998204,0.3530834986,0.5961527596,0.0632463328,-0.7864829178,3.4485594363,0.7448132603,2.1997309751,-2.2839592509,0.2521133475,1.1097457582,-0.7992905411,-0.7866186276,1.0473694087,-1.9618663867,3.574381461,0.7388810947,-0.7477217682,-0.0334853174,3.8130539255,-0.6890934701,2.4061094017,-3.3055245868,-0.3377655406,1.1188854242,0.3471571785,0.2366923354,-0.5756535446,-2.8593863393,0.9705750975,3.4355951845,-0.5285039328,-0.0161450063,-2.1186265089,1.6387841991,0.6730717931,-0.5958283434,-2.0246154716,0.9852346226,-0.2290344413,-2.5948424047,-1.3356148604,1.180063115,-3.1927699566,-2.1448685064,1.3444925482,1.4594189988,0.5965666415,1.5077869694,0.9769397789,-0.9251295916,-2.6706070771,1.0890864423,1.88762644,0.1554116268,0.3353637036,1.4371398453,0.6737934498,-0.3141165761,2.7749830442,1.6565399878,1.7797811198,1.420321451,1.0307853974,-1.2319073553,0.5972361912,0.1551284116,-1.3744464768,0.6813219964,-0.4585147606,-2.4172213921,0.0509178444,-0.9596481005,0.0421299358,-1.1814974763,0.6509509355,2.2652491184,-2.5361601971,0.0271054753,2.0278042052,-0.7479354847,-2.0781420143,-0.7779224758,2.651206975,1.4490611387,-0.779422276,0.3056614695,-2.0976818228,-0.9949369235,-0.2816761188,1.619050554,1.4716554804,-0.0735714896,-1.3050565479,1.0961918443,0.9602647242,0.7711776306,-0.1562994452,0.0347054416,-0.5381801331,0.8803657061,2.9770578029,1.5756358509,0.7582178564,-0.4563028786,1.6694923614,-1.5387561374,-0.5365730474,-1.8176822143,4.0599666999,0.8203759793,-3.3037140823,-0.1166693134,-0.3086695428,1.5746004354,0.0415629295,-1.7368259595,0.4018940012,0.8688163211,0.6841369537,1.911696573,0.7688579663,2.5951803546,-0.6710812133,0.2451009034,-0.9570205925,-0.1038076595,1.3061002346,1.8604889409,-0.9869249228,-0.6043076074,1.5089978249,-0.005176044,1.7558752132,0.4435982419,0.3980632153,-0.2513692114,0.903065682,1.182821768,2.6078256706,1.4238227652,-0.2279302364,2.7728607024,1.8982511487,0.8224677556,-2.5360012038,1.5238561196,-1.6159883159,1.3860793373,0.3815665446,-2.2424154913,1.2614839999,-0.3007148546,-3.4445571768,-0.3761458496,-0.468683877,-0.6407438744,1.2529670992,0.041118657,-0.7279145929,0.7847864649,-2.0494155122,2.4660035497,0.2538381873,2.0116817178,-0.7251583412,1.8227267318,0.0478323981,-1.0562679414,1.3191204962,-1.3425872176,-1.0532785954,1.4369975829,0.3135080679,-2.0938995422,-1.0651944344,4.904071134,0.5853960412,0.7013931127,4.2645459228,-1.8494304064,1.4685705846,-1.1471831488,-1.0421815586,-3.2486406868,-0.2230734725,-0.3309234746,-3.5182629893,-0.8939144185,-0.3507860308,-0.3281764407,0.3532017479,-1.2617782612,0.1348767174,1.3411293766,-1.0370402437,-1.6078310254,0.0961015567,0.0393232493,1.0132662013,-1.2543197187,-1.7571416177,1.0585032696,0.8411088319,-2.0491238874,0.8719229148,-0.204194621,2.2644684626,0.0539189005,2.7215089167,2.3770943601,0.257232095,-0.5576606403,1.352945371,0.5640176712,2.841418445,-1.3778612951,0.2930372225,1.4288875703,-0.6360506366,2.484768204,-1.2304724428,-0.4385092007,-0.4979334295,-0.1443614828,0.7153728481,1.9971100771,0.0059853994,1.4023728196,0.7469072803,1.6114900264,-0.901616171,-1.6678946933,1.1738992822,-1.8003334334,-1.479264537,-0.5861932423,3.3492200018,-0.6924456649,0.9432061765,-1.8292870768,-0.8725426524,0.8819954485,0.5642427076,-1.2808534707,-0.0466593762,-0.3234985024,1.1907557112,2.9813800744,-1.9640840915,-2.7337273221,0.0678741433,-0.1177356596,0.4034299218,1.6051011723,1.5480778404,-0.0536844371,1.0848720875,0.9793205512,2.960177997,-2.5001663029,-1.1690300636,-0.6034789876,-0.4287603485,1.1897154599,0.3078704604,0.2975554146,1.65337563,-0.8950906098,0.27346136,1.0035668168,-1.743843132,1.9493246285,0.7197402388,1.4101421191,3.1057090584,1.2546482645,-1.6438594505,0.5632759683,-2.649185856,1.6311884207,-2.1931812066,-1.4875897142,0.3825745791,1.7361468645,0.9739223522,0.7893825147,0.7235579077,-0.4739942241,0.2301379326,-0.1075915444,2.0938583414,1.8956972359,2.8047206232,0.3300793865,1.242099444,-0.4278773647,0.6331044986,2.0084179749,-0.5862155835,-0.7603669265,-0.225558422,1.5334746519,0.5046095864,2.3658168076,0.7256465913,0.045194842,-0.0912477851,3.9923082375,-0.6228608939,1.0961501709,2.1727925088,1.4999608331,-3.983400468,-1.9405826984,1.5992347421,0.5036516215,-1.1412292007,-0.0509243494,0.0091978209,1.7996976346,2.1263802486,0.1210664485,0.3938695787,1.071279514,2.6878028344,1.2163678228,2.5121318796,1.9603291097,-3.0522270682,-1.7340291413,2.5048069178,-0.5457983257,-0.8951036907,1.0813859953,0.4105077321,-1.9087075425,1.3031459795,-0.9615313647,-1.7712625256,-0.1271496262,1.7973965378,-2.4100558481,-1.4795869006,1.7441569881,-4.2738529141,2.7737968392,-2.4280742008,-1.4390005898,2.5786431753,-0.6380894211,1.7600275414,3.1220019342,-0.2566952874,-0.1911032506,-0.8071929196,0.2202994759,0.0572204769,1.278258123,0.5516639142,-3.0361946704,-1.2962218632,-0.2510151147,0.0434990611,-0.0018735011,1.8139963014,-1.0066322699,-1.1153282888,2.2877616186,1.2517564375,0.098028645,-0.6921854321,0.3316913512,1.2433767554,2.0932841404,2.4962611991,1.0143487031,1.2980089022,0.157858461,2.8545235178,-2.4370166236,0.2235957735,-0.8249420602,-2.224588953,0.1410511859,3.8352452079,-0.7415309896,-1.5547142094,1.6557023859,-0.114404036,-1.8622592158,-0.580411052,2.1462481811,-1.0198886705,0.2663544834,0.8676012482,-0.3297441553,-0.1885459957,0.5677468954,2.0461468654,0.3430737533,-0.6257239715,-1.1342503455,2.9182492816,2.8384907079,-0.4009464545,1.0335137039,-2.9636597953,1.0836985921,0.7365360511,1.3513202723,1.2992619107,-0.7737479396,0.2962935168,-1.2835532715,-0.9260856663,0.6237869288,0.8971959125,0.0520836402,0.5645582425,-0.9627062058,1.8411363049,0.2926810878,-1.5600015181,2.3270164074,-1.7605336828,-1.5839987392,-0.1053083365,0.1391296354,0.4348951654,2.6132053587,0.1021380833,1.0672381577,2.7190562305,-0.8921608628,-0.6424010184,0.8955671347,-2.607815888,2.2258946511,-0.8408481928,-0.5947762463,-2.2915226909,0.4806337262,-1.6420734401,1.3793251331,2.3456185017,-0.5157251211,0.7535986308,0.1575813814,-1.7057435216,2.0411620716,0.8767108307,0.6343644418,-0.1747933722,0.3851699632,-0.1186190751,-1.1945078725,0.497027519,0.7391396148,-0.9350335285,0.8984102126,1.8117970932,1.1614290913,-0.2066685208,0.4708966243,1.0764527493,1.1861631207,1.9912294249,0.5333549267,-0.4456060981,1.7017517466,1.136816027,-1.4445218154,-0.3043137599,2.9179024938,-0.6229268591,1.5262139577,-0.6203861218,1.1245171911,1.6664982599,2.0216873089,-0.6640430348,0.1678544207,-0.1724788053,-0.9749438697,1.8391466326,-0.4105382528,-0.4456283328,1.268844967,2.1326677705,0.3457247553,0.0843084449,3.6518899191,-1.2784422131,-0.2096032828,-0.4148875026,-1.8582585069,5.1611092424,-0.1048479144,-0.7673866895,0.8333742903,-2.3514711656,-0.9323882276,1.4103528029,1.6607223064,2.2751775661,-0.3982709355,0.9146030857,-0.0538486868,1.6754328194,-0.0049859707,1.3921964095,2.5577046758,1.1556586889,0.2299870169,-1.9919210945,-0.8380588751,0.5440028289,0.5810444335,0.9293393151,-0.8766779073,0.2912277802,-1.487523069,0.1318631903,0.7808922969,-0.5250247346,-0.1943909607,-0.9438023989,1.3579456823,-1.0552246777,1.3217858827,0.3717883001,1.1545362471,0.5725778484,-2.9833424789,1.2562267319,-0.8124923458,0.460224439,-1.2994901085,3.784465308,0.7078546667,-0.8475586619,2.1854521443,-0.1183295908,0.7569501168,1.0561975422,1.0917378956,1.4607801034,1.4242637537,-0.7078851128,-0.1156290284,-1.5058174943,-0.3951106275,0.3647446169,1.1358648922,-0.9567419805,-0.9612797227,-0.1345884428,0.0816517706,-1.5032824279,-0.3555110902,0.5726544685,3.1769494535,1.1719102767,2.0296836905,-1.6634659079,0.9244487942,0.9270517433,1.3119317901,1.4042729055,-0.1087565792,0.770786004,0.4772174252,-0.6263099707,-0.407702396,0.620297416,2.2794867749,1.2427513857,0.8344319489,1.6440431428,1.2176241571,1.5305650637,-0.7471087564,-0.8802225557,-0.7122755356,3.2955221504,1.0933217812,-1.418758053,0.0413504483,0.5470967511,2.4337976507,-0.9443582009,-1.7554714255,2.5797549593,0.083783325,3.3507097835,0.9074473271,3.324813206,0.0400557434,-1.3588852349,0.664084586,-0.8399523852,1.5010758135,1.4781868682,1.3950943784,-0.3788551162,-0.1668186153,-0.5157194805,0.0741608753,2.0091224473,0.1221753161,1.6971080109,1.9132972765,-1.3737240261,2.5501468482,0.2490865809,0.8573617121,0.4328828557,0.0342195655,-2.6239666977,1.5695070154,2.3665447966,-0.4865684686,2.6358104538,1.0305537575,-0.8978581505,1.4005462658,0.1091815769,2.573997665,-2.2016398381,-2.5134040416,0.4142667061,0.987426483,0.7363244915,-0.8050358893,-3.2556353354,2.2013118317,2.8880186169,-0.0450595019,0.786330879,-0.9316046742,0.676917401,-1.4170137565,2.0272974845,1.593596639,0.5877670795,-1.8878245938,1.5436302436,3.1469741925,-0.475771303,-0.8890919383,-0.8087108804,1.0916001291,-0.005906061,-1.1332032661,1.5572621929,-0.2462243634,3.0890713789,-0.8306144593,0.6091291581,1.6368802,-2.1942346777,0.6591710604,0.8968891092,-1.0307127366,-0.2744917784,1.3289101464,0.5149467096,1.8665648939,1.4693122083,-0.026115414,-0.0345405906,-1.4755216312,1.3246675052,-2.0874180593,-1.4479459534,2.1016103599,0.0410180782,0.7402880742,-0.848567707,-0.1435793615,-0.4025566103,1.8050016885,1.8382819218,1.6776545527,1.4795224325,5.1461506023,-1.0977794773,1.721128656,-0.0726139557,-2.9545336698,4.6891541809,0.7745487108,-1.0557643516,1.5803145165,0.5818780659,-1.1149701278,0.8461911344,1.6527183747,0.76529341,-2.2946037874,0.7467242542,4.2708590129,1.470620813,-0.4248477387,0.5832012532,-1.3646031925,-1.0703874211,-0.2813785741,-0.7366919994,2.8139435846,2.5082436746,1.8458073497,-1.7669716899,-0.728193099,-0.0714894291,0.1410841609,-0.3032523342,0.2760450927,-0.1246090071,-0.4261276052,-0.2147975052,0.0574302956,0.6506091373,1.3398752148,0.4387352786,-0.4154792614,0.7862781086,1.4277939006,-0.4044740924,0.9191987727,0.068945133,-0.7170186946,0.8171148561,-0.9507094187,0.0109350631,0.6595841483,2.2311813972,0.687450721,-0.2592837425,-0.372507563,1.8560014395,-0.6284511677,0.9830556235,1.1448078834,-2.1126416792,0.3357297089,-0.2303756286,1.256188229,2.0307726263,-0.4379912052,0.1873729794,0.4405433955,1.7403161178,0.8918081792,-1.0852800027,1.2001602705,-0.2021569143,0.3393835015,-0.5277207949,0.6891652734,0.3388924483,2.3188025508,0.4689981159,0.4570967938,-0.8924000466,-2.2144465968,-1.5312848351,-0.0890389706,-0.1974779703,-1.3547268981,0.1639131107,-0.0937251378,-1.324425528,1.0671952879,0.4095795599,-2.8284443844,-2.0151950673,1.9670321953,-0.5508368772,0.1592075783,1.7389158733,1.931397934,0.1095600315,-1.3715519324,0.9334542881,-0.1445385464,-1.9103492565,2.2881443967,-0.7832911284,-0.5873974401,1.8116311046,0.5501564063,-1.8927565145,-1.1084420404,-0.239205437,-2.0037982597,1.76241074,3.1454377738,-0.2220317243,1.2730498018,0.4294276351,1.2525986867,-1.0074219912,1.7229672042,-0.3805958643,1.4470047187,-0.164755538,0.8046239197,0.6138434192,-0.1894747323,0.9196225497,0.8460057935,0.0446294417,0.9987512426,-2.5159259271,2.7624088305,3.2716271576,0.556279723,-1.0724053233,0.5910750367,-0.0768527768,0.0673770917,-1.3012196353,0.7129928339,2.7379074047,-0.7702453563,-0.8665263861,0.6162280049,-0.3618019416,-1.4766257257,-0.0810554891,-1.3518213325,0.3030994594,-0.0782357259,0.9500674381,-0.1256938658,-1.4756415335,1.4760849897,-1.8011654267,1.991216164,1.8641913039,-0.067627493,-0.694540709,-0.214984222,1.4644966113,0.451067585,2.6553661356,-0.1587962772,2.0102902556,-0.1589772811,-1.576969882,-0.7810629989,0.3720269487,0.1178616444,1.120396485,0.2737025169,2.4153954585,0.9508490357,0.6787910246,-2.470270589,1.0379634087,-0.5460020981,-0.8032811906,2.9009994749,-2.2326825303,-0.7844478468,-0.3173977595,-1.3045127958,-2.3441028001,1.1477297174,-2.4255227007,-1.1058557587,1.8099530066,-0.8443757643,1.0382599708,-0.9546765401,1.7246998163,-0.0868035789,0.2940939717,-1.4927423398,0.0733501514,1.8972988636,1.549519606,-0.9703820377,-0.7089926874,1.3613536909,0.7729789252,1.4363132125,1.9673854964,0.7278582342,0.1871310872,0.5191694331,-0.2505594028,0.6231544938,3.9634321003,2.2297446894,1.2348603405,-0.2864563603,-0.265143059,1.9017837664,1.9333141751,0.1403105634,-2.0807154286,0.2043064731,0.6555440434,0.9961020787,0.7322434432,0.0813999463,0.6671049162,-0.205107979,2.445079461,1.5387700857,0.1292667708,0.6576851096,0.9360663407,1.8846536686,-1.979064059,-1.0922933294,-0.8776514037,0.2502585912,-0.2822622244,2.2977979416,-0.6497636013,0.0874849682,0.2589087908,0.1332432542,-0.2740960068,-0.0413803039,-0.2149569365,-0.1192015006,-0.2456082379,0.4188644947,2.5448505039,1.7894231097,-1.0994103088,0.3827578568,-0.326971821,-1.2351721839,0.924434517,0.5546460642,0.989804796,-1.9531456746,-0.6797769317,0.8893963117,0.0706875845,-0.4260946487,-1.0476667445,0.9047464328,1.2268954951,0.6246453339,0.2593330323,0.4732887182,2.5481715516,3.5998192343,1.0638746982,0.2856610353,2.74276342,-0.2972563773,-0.3711553818,0.7923260557,1.6300972948,-0.7272728623,0.6201983267,0.2221326745,1.7983575645,1.7676131837,-0.4966166614,2.3282418104,-0.9082518924,-3.3813791759,0.0868622307,-0.1386972075,0.3328672459,-0.8755303603,0.853030349,1.8935109021,0.7570827154,1.531593421,0.4307992148,1.856419463,1.3091352235,1.0405618521,0.2021267377,-0.46697514,0.6850586992,-1.046335806,-1.7416179426,-0.3859226856,-0.1180727941,1.1942122687,0.7333078013,-0.7319786788,-1.9703889456,-0.5561973253,-0.6048657884,-1.1465677626,0.1626232561,-0.4578565643,2.65108501,-1.0599566138,0.1612668919,0.7039575374,1.4766312927,1.8666839021,1.1085317825,1.8553911085,0.9384517923,0.0188106874,-1.2898896544,1.5000339456,-2.5836116422,2.8129909226,-1.9193667709,-0.344657899,1.9528495977,-0.0002380649,0.7500958474,-0.1986456684,-0.9749707378,-0.0285197728,-0.2024450704,1.2243068454,0.8348900515,1.5274877382,-1.9432403753,1.2251685713,1.6943571238,-1.2903739651,1.3335355533,2.5656397189,-0.2479435754,0.0142836108,0.9535748413,0.0172533061,-1.4359042109,1.236132611,-0.9912615347,1.6364388378,1.7511805525,0.5947952267,-0.6162472687,-0.9768486538,-0.146606677,0.5320794485,0.8350036521,1.8404762841,-1.8196222142,2.4473327846,-1.6857129138,-0.7254318794,-1.0571340664,-0.9604119025,0.5888832125,-1.4133788036,0.9422883739,2.3064610997,-0.8709162493,-0.4626296714,-0.0000004886,-1.2673399373,-2.0388451994,3.6550180747,0.6577673515,-1.7010955958,-1.8231462517,1.0393826648,1.2264828112,0.0684895124,0.4933838246,4.1848085162,2.098802533,-0.9488687231,-0.0451321502,0.4435517797,2.0630719411,0.4693110455,-1.3659848987,-2.6745033283,-2.7134556038,0.9282347832,0.3790917664,-0.1877893255,0.7059807275,-0.0149818706,0.1573889721,1.3510746976,-0.934707802,1.8310489441,1.4827693012,-0.1011432476,-1.5321862439,-0.4931946736,-1.0413508619,-1.3647620018,0.2623204298,-0.6688543608,4.1470094395,0.4349865068,1.4878404925,0.2800108217,0.6388883288,0.7055728674,2.5634732528,-0.2030620459,1.3792183239,2.0147605521,0.3862696157,2.7455679302,0.4899702663,-1.1435217496,-0.573651086,1.3674654205,1.1234052697,-1.6155738569,0.5798928197,1.118322718,-1.9667074245,-0.6652449836,0.9649511977,0.454751091,-0.7857458844,0.3914486787,-1.3387412024,1.0197714285,-0.7179903774,0.4218952156,2.1877098476,-0.1920045466,0.4787483734,-0.079962082,-0.061009723,0.6896797165,0.2050924244,0.1186995518,1.6828284787,-2.1482890596,2.9090972885,0.7000371783,-2.0906139252,1.3332616156,1.4421846458,0.0681132442,1.1245571134,-1.1998823709,-2.0531442546,2.8534385189,-0.4859753595,-1.2582589701,-0.8687195088,0.0122000997,-0.8009779189,-0.7282052084,-0.6922512728,-0.1735445163,1.5854853423,0.1071411513,-0.1578307491,1.7772283447,-0.1856365217,-0.9732827202,3.5815107558,0.9903277276,-0.9736437156,-1.2603333825,-0.0651865442,1.6248931086,-0.0081340391,1.1453087814,-0.7962563393,-0.5239822717,-1.6406096495,1.035992686,0.434959226,0.7869249469,-1.8674686344,-2.1654400064,-1.3519566272,0.7232064992,0.8343068821,1.4307282282,1.3638778036,0.6187468236,1.2603480312,-1.9802425087,1.4344316999,-1.4019149014,3.0490923772,1.2475851263,-0.1739713266,2.385835533,2.0179887903,0.8105446661,1.2445089598,-2.5751082658,-0.7965337223,0.0484767891,-1.061633681,-0.2842705805,1.3247317823,1.712546217,1.6267549959,-1.1344130959,1.0107840565,-0.8505221957,-0.1110296993,1.9191578043,0.3824574157,-1.5272489415,1.7364859497,0.4466881707,-0.7782835165,-0.3714931186,2.7010222051,-0.017233106,-1.4522097455,0.7446920055,1.4417199422,0.8925681685,-1.5820046876,0.0695525788,-0.9702698534,-0.5318662055,-1.2441581976,0.4050890855,2.5513135775,0.6314223079,2.4939927628,1.3204799848,3.8405593312,-0.3432901266,2.2859573834,2.2838843501,-0.9670084391,-0.2067104789,1.3717734259,1.2930305672,-0.2399976547,2.9425698218,0.6027487691,0.3555417542,2.9131984268,1.8667322015,-1.5120572583,1.7701950302,0.7173151204,1.0670915715,0.1350703273,0.9090261221,2.8805073957,0.9388174471,1.8944564687,2.1858309809,0.2756575177,-3.4589200353,1.5870109368,-1.1389490922,3.0996705822,-3.2845741214,2.7187427592,-0.2197851407,4.511432348,-0.6887148468,-0.7312296903,1.5052650623,2.4627660016,1.6455755919,-0.3380234512,-0.2369124277,-0.241994728,0.7915661783,-0.968184867,3.4911264182,-0.6408183367,1.4572281281,1.3980269953,-3.428829993,-1.861873537,1.4496574833,1.6693966472,-0.8807795561,2.5459900296,2.4411913629,1.3416170838,0.2936257237,3.9780913926,2.0482541275,0.35968315,-0.5785171417,0.9347166938,1.7104583269,0.1486377012,-0.2788462185,-0.7598056314,1.766481964,2.3254719814,-1.7462996518,2.6394242035,0.0386293859,0.5849865104,1.5958421132,1.5149532912,-1.2394438459,-1.5273746374,1.8884839559,-0.0385660187,-0.9962936155,0.5338767456,-1.572238065,-0.8824897741,0.2309345715,0.3569136309,0.7342736555,3.2427395347,2.2930059511,0.4797469879,1.202164488,-1.6648284478,-1.2017583046,-0.8186713047,1.7163939791,0.2322171285,-0.3689481969,-1.2257156788,0.0630199738
   2.1068593875,0.3592203653,3.2213782394,-0.5021058686,-1.2799998044,0.5541761112,-1.225131914,1.3611926426,-2.3383219357,-0.3904198328,3.180821617,1.2844969502,1.0362981912,-0.3296236146,2.1526436058,0.560496347,1.3329366159,-0.5076560525,0.6591491697,0.5348624433,-0.23747643,1.1896879671,1.2779226563,-1.0382709486,-0.0638566798,0.6320483849,-0.092293348,0.8785458414,2.0415769263,-1.6681328714,-0.1014784151,-2.3723015951,1.2630303895,-2.049074498,-1.1037218288,3.5433535569,0.5268470933,-3.0254611904,3.2877074291,-0.3207674368,0.9695973141,1.156871505,0.8600592339,1.7705116973,-0.5613496607,1.7753003805,-0.185760631,1.1176814568,0.9697904491,1.0325197094,-0.9499447097,-1.1503134351,-0.3109907312,2.9091705075,-1.3924590556,0.1889214503,0.5782090296,2.8566857985,0.5909460533,-1.6667867585,2.7342381651,2.8018825107,0.5919135918,2.4673169816,0.4572683864,0.3266228609,2.9944719678,2.3688595652,2.2326992751,-0.9380708671,-0.7199998163,3.5435259208,-0.3892917384,-0.2859574147,-0.9624817686,1.2278390182,-1.8378597314,1.9173078856,0.4033499406,2.8769753747,-1.0724677154,1.5099545283,1.8632850223,-0.8910364568,-0.5958474699,-1.1169458867,0.4857982998,0.2499267296,0.5601082241,0.3649492197,0.7435750053,-0.1600567358,-1.4083647172,0.9510816027,-1.8024090212,0.6721017044,1.6839877389,-0.6160706165,0.5234190479,-0.8515794978,3.519299032,0.1165605019,3.2603993929,2.5565785876,-0.0080417278,1.7542506394,4.5145347028,-0.096016321,-0.7189213195,0.536303895,-0.1592446605,0.0198836107,0.6896459163,-1.5621885624,0.7153669121,-1.2124589841,2.0498997481,1.1416976885,0.1937487988,0.607226728,-0.6631215778,1.0266151473,0.5838522005,1.7323433302,0.1347772344,1.4676021632,0.7055985369,0.9136526843,1.194852353,-1.5027906662,1.8333524906,3.249649644,1.7842340944,1.1347673211,-0.843618929,2.6253173521,1.1988827735,-1.8811253522,-1.4934166885,0.1635403153,-0.0681156232,-0.1610743263,-1.1026072269,0.4454906707,-2.1967285598,0.7136596121,0.7904710665,1.3341550617,1.3965291074,-3.0160638409,4.0140782156,0.2851261329,-0.4658428436,-0.9233762945,0.3528450087,0.5326359413,1.5109967322,-0.1574323902,1.627508126,1.6735343909,2.3791977987,-0.2451158235,-2.0126006989,-1.1782369821,2.1493571349,1.0063824292,2.331934828,0.8435242895,1.401827821,0.4627381123,2.0473384414,1.3424264148,0.9402128822,1.9301485875,-2.4880490992,2.3834996357,1.0442992145,0.3635731694,-0.4715944743,1.7947277479,-2.0983310711,1.1063695565,1.7528692543,-0.5583497828,1.9514554927,-2.8380388852,0.7033522969,2.6145601234,-0.8982292322,1.7116274791,1.1427339627,-0.5047572063,-1.217038133,-1.7271595098,-1.8183480443,2.370827299,0.008476644,1.0729875175,-1.2129152117,1.505720661,-2.8580116894,1.5582095113,1.5601453399,-0.1925367947,2.1649702492,2.7281723506,1.2431882386,3.9923770153,-1.7079808068,-2.2452394131,-0.9690828168,0.6601639132,-0.9898922483,0.0870350361,-1.1731270526,0.2299026513,-0.2580346102,-0.2851051443,-0.632177963,-1.2801813669,-1.5680201014,-1.4509193462,0.6982850369,0.8674909748,1.8258356982,-3.7586880429,-0.2782534871,-2.077760735,-2.8438846973,1.4658486366,2.0561275283,-0.8817497941,-1.6620459461,-0.1247383098,2.8964658393,1.6655084721,0.6870448265,-0.6735577116,-1.6701027995,1.1198486965,2.577868591,-0.2965579676,1.3507819335,0.5390023583,0.4575792871,2.5748899798,1.9623498403,-0.0160296981,0.3209764995,-1.5834836635,-2.5181840572,0.1995835801,-0.3165757049,-0.7913312814,-0.6996124159,3.1490429174,1.9413809371,0.402986595,-0.3610001255,0.2019693375,0.6640986297,0.2754896257,-0.455865921,-1.8024649984,-0.1257311896,2.0345785127,1.5564633573,0.2828883274,-2.1523880393,0.8574971966,2.4140250178,2.2635052321,3.2018696344,1.1849299268,1.7575442692,0.8907730633,1.507348425,-0.0763612687,0.2860379113,0.4463062068,3.0143074365,-2.7469602521,1.1449412553,-0.5468664491,1.5191366738,1.3847925817,-1.06345496,-1.6197857565,1.729672914,-0.3459657943,-0.1892143377,1.6672525337,0.7859655034,-0.4850878448,0.6669318578,0.3439261675,1.9127735947,1.0324991306,-0.6676732399,-0.3458283045,-0.6609552397,1.9609183038,0.5937383063,-0.3723192422,1.8089035541,3.0245676347,-0.3049874188,0.7857205776,2.4859845364,0.8603255024,1.8661633498,0.3862167586,-1.7200861361,0.9884433349,-1.0391635201,0.7688313453,0.515031615,-1.5110654381,0.0769253889,-1.8971713572,1.8391683025,-1.0463393848,1.6802572983,0.9964891359,0.7626414956,1.0976761667,0.0248488733,0.8709175138,-0.875141867,1.7102291711,0.0690394965,1.7260877004,-0.402388632,3.2155885909,0.8056480175,0.0266401417,2.6874229324,-1.0177939127,1.4666903118,-1.9761541743,0.7240088995,0.6750541656,-0.060385108,0.0749280029,0.9604556931,-0.070079178,-1.0272896536,0.1869048529,0.9215847175,-1.4771688786,0.2594724562,-0.4664613737,-2.0036792942,0.815722449,-1.0961098944,0.4833621733,1.3373242826,2.3677777058,0.0292534895,-2.4116716275,2.6610199732,-1.2649405012,-0.317169778,0.7001978413,-0.0026777329,1.2800347834,-1.8429225535,3.2069384582,0.4181845132,-0.3564127599,0.6351774686,1.1248159524,-2.6506017259,-0.5351890911,0.4984083655,-3.1418353085,0.6587253073,-0.164609559,1.2154044908,0.8669501894,-0.9482474348,1.6856830817,1.0675657987,-3.391103878,0.6920871914,-2.016897311,-0.5334524458,-1.2740673724,0.764626498,-1.1317508737,-0.6486546039,-1.2640605508,0.2587223825,3.1908175648,0.8602370435,-0.7313912307,2.3519069195,-1.1449068589,-2.2132075867,0.8617820768,1.7801266916,0.2227490907,-1.9253913031,0.6137944334,0.593110547,2.1907264093,0.9009349064,0.4266983073,-1.4943445869,-0.3857320116,-1.3238081192,-1.1786296166,2.0893768491,2.2797965413,-0.5258771305,3.0943966641,1.46060564,1.4207633679,0.1594101253,-1.9860696497,0.3433438573,-3.5312323249,1.7611473877,2.760139119,-1.636914837,-1.5348674496,0.3341889252,1.1631433162,2.3376366526,2.9542300146,-0.2421484911,-0.1626345722,0.6654803179,1.0493605576,-1.0728226893,-2.2384634182,-1.903185061,0.780263276,0.1569454439,1.5785711991,2.6734190168,3.4484974887,1.3860421961,0.7248199279,0.6851217529,0.5121071139,-0.8391774344,-1.1467208099,1.1353587975,0.9864517491,0.4077553927,-1.9746957705,-1.1333627502,0.1040131539,0.7789550081,-0.0813120371,1.4352273375,-0.4481212443,2.6493001865,1.7315904993,-0.3456875896,3.6707432393,2.0854489498,0.8286371166,3.6759792773,-0.7118010258,-1.8506463889,0.857474955,-0.3946342006,-0.0376820014,1.0018934073,-0.3064830863,2.7975128028,1.1938860815,0.1846484407,0.5697074754,-0.1783677539,-1.4369026686,1.6309636487,-1.1677136778,2.1664746801,-1.0804526134,-0.3485812111,1.2718615354,-0.4530065155,2.6531384024,1.8547972868,0.2942346087,2.086115544,-0.667943539,-2.2070474925,-1.3791089611,0.9976956149,-0.7639981224,1.3997047337,1.2666439687,-2.3100372113,-1.6071144451,2.1921205778,0.9572638597,-0.1309385752,0.2065221946,-0.1744958095,0.3096225307,-0.7171205746,1.7537108522,0.0178881133,0.1258097856,-1.6689105977,-1.0613999436,1.0090261571,2.1670799375,1.5059313559,0.1678156982,1.9004048211,1.0958327955,2.0603979444,-1.6409723759,3.3638707277,-0.1377013952,2.1724250354,-0.6239074975,-1.8881724228,-1.5945475505,-1.7355186028,1.5387831705,1.3477381344,2.0292813342,2.1695050754,0.5708889652,-1.5745199587,3.5395386185,1.7215594295,-1.8615203364,0.2590298988,2.365741018,-0.16571561,1.9452272187,0.9991365607,1.239524187,2.3097716258,-0.9202119589,-0.1331674696,1.99722456,1.3123243987,-0.8288708097,-0.492793474,-0.2941681919,-0.7540510703,1.1512823543,3.0859310091,-1.5671523784,1.2574345181,-0.4402954347,0.9874049941,-1.2900138445,-1.1501783034,1.8045148311,1.2842864524,2.1575091155,0.6329142272,-0.7157874436,-0.2583396911,-0.8885903852,2.9068889029,2.1935166677,-0.1286755278,-0.4723044531,-1.1987676944,1.7064709724,1.8389709398,0.7226760159,1.0639564028,1.4046943307,1.6730983502,1.8344117181,-0.1558943993,-0.778098465,0.6056094465,0.0693667623,-1.0920677496,-0.2279557352,1.770853575,0.4179775215,-0.7107978983,-1.1092825598,1.9482077236,1.7248161836,1.7399719093,-1.0592589581,1.4282705667,-0.216735233,-1.1892116857,-1.1264626561,0.2918247932,1.7654687718,0.1129917603,1.4455044983,1.9419615999,0.0329304198,4.8327207571,1.1385301347,-1.3728442376,1.0828634003,2.7039243208,0.6355867404,1.8725125694,0.0308508298,1.3374690943,2.3473213277,-0.5198016533,1.4098230325,1.8373572554,-0.3121275148,0.7463751212,0.0769466723,1.1048191185,-0.966212388,0.9305534327,0.8051702476,-0.5123416007,-0.8675721138,1.9582355167,-1.1098053904,-0.1393685698,1.5754654486,3.6683627467,-2.0450226893,1.218826785,-0.0070190892,1.0571748696,-0.9637403412,3.1018677611,0.7929678265,0.7030291226,-1.4923055205,0.0195029415,2.159109159,-0.5420453807,1.4285320273,-1.9232347191,2.0651894552,0.9299251735,1.0820566352,-0.7464274736,-0.0510265493,-1.7527503766,0.4061336493,-1.0295396445,0.7034927299,-0.0005586643,-0.9516808948,1.9973957155,-0.2768148767,-0.8760790955,1.2386517117,0.4174564568,1.1883413506,1.6787268278,0.1493214773,2.1145102404,0.0259278164,2.7859434348,-0.477515138,0.4970056575,-0.6561069759,-1.9056649103,0.3770206705,1.1413138454,-0.7064013278,0.410465078,0.3377844881,-0.7128815044,-1.4570286529,0.5225887172,0.6475595479,0.9350745582,-1.6289890194,1.4520275377,-0.1080382684,-0.8487062108,2.5884062063,1.2916945672,1.0863223656,2.4315288042,1.6104679499,0.9359979697,0.8062350659,2.6620536399,0.5854748211,1.025136768,4.2591972896,-1.9716894726,1.3683395008,0.3055025518,-2.5977013101,0.3371101777,-2.1914823011,0.5126013193,-1.3360514182,-0.5142553244,0.1863077968,1.4957589021,-1.5259507194,-1.9239579701,-1.0757158661,-0.2818033507,3.0254200169,-1.4506088714,0.5837695921,-0.9545260128,1.6291142825,0.3693535437,2.7193544447,-2.2846213605,1.6045227771,1.4977282496,0.4928331974,-2.384747928,0.9969774714,1.063843332,-1.9939499378,0.1955112905,-0.4550317117,1.2829958121,-0.3300977868,1.5230802646,-2.0751886519,-1.4333334231,-2.5073517429,1.5217564205,0.6943647127,1.8245361609,-1.9804960275,-0.3664283846,0.0102301088,-1.8525567646,-0.3488810188,0.2709049838,-1.071607081,-0.3979901846,0.697845155,0.7431521626,2.9165879188,1.5866097276,-0.8872733048,-1.0870539717,1.7878911992,0.8818018157,1.9392929943,1.1959397194,-0.5101698419,-1.3927914385,-1.8657677955,0.5017836055,1.3037797074,-0.4519126325,1.7577536148,-0.9270160224,2.6105181293,0.2377798168,1.1967478965,0.2201978323,0.2443071779,-0.2881617817,0.0700484802,1.4562589076,1.1303467778,-1.2872625301,1.0817980253,0.8941865631,1.5848766931,1.1431612119,2.4049065141,-0.578187114,-1.116413763,0.3631020814,-0.2974813746,0.1251945738,-0.3375212193,1.1879437901,5.0969102483,2.2188565084,1.4683604627,1.7701348084,2.3723117441,1.8626478383,0.9991722105,-1.7272070895,-2.2393328122,0.9167898658,-0.801289309,-2.3537589477,-0.3175869547,2.3180609966,-0.0966335828,1.0538322956,0.2201167186,-0.5138356391,-1.1524460906,2.174894287,0.7623844602,0.1190215492,4.0705125316,1.0935852968,-1.388443922,0.5390512429,0.1467164195,-0.1185471188,3.0313568238,-0.8672189256,0.7030141484,-0.8263161224,-1.0046243496,0.5873078577,-1.4564091627,1.7626695569,-0.6776604099,0.6292976176,-0.5128268065,1.3833585445,0.787583275,0.5078473691,-1.6198009708,0.6989412968,-0.1216807392,2.9015985952,0.8035078161,0.6112100818,-1.3136903207,-0.4529201025,-0.5434460575,2.5935720434,1.3757547463,2.0405202526,-0.0121247917,1.8559589358,-0.815760726,3.6676368499,3.3257717385,0.1126164388,0.3735535788,4.170184896,1.8405700848,2.1566897341,2.5365486212,-0.6995886178,0.5398109548,2.7241701147,1.6460051273,-1.3244253113,1.7311286685,-0.2946368612,0.1664060501,0.1577732012,1.6562687108,-2.1780362951,1.2797959641,1.9175561737,0.6942131593,1.4360972924,1.9432272317,-0.1380559725,-0.7002873689,1.130059895,-0.1174659389,0.636620486,2.3150947251,-0.2986416396,0.5880267248,0.0446389171,-0.7469797484,0.4486710563,2.1109370586,0.7908182761,1.4970410686,-0.3688487437,-2.5582175176,-0.1967879911,1.8445494325,-0.902321478,2.6915346823,2.7927124916,1.4399546905,0.3666777707,2.0169079459,-0.3845316686,1.0249839032,-0.5584211966,-1.5077138381,0.8264517278,2.6240062378,1.0248286472,-0.3501860688,1.8265598355,-0.3424828299,2.436312908,-1.1879790376,-0.6610785003,0.1463363386,2.9970950977,2.0581367282,0.8500477284,-1.4326074075,0.8251787646,-0.7570471456,2.6232439328,0.5480428703,-1.3654881101,-0.8789864957,2.9811402777,0.074862984,1.9361396885,0.7806788827,-0.683753718,3.4526611935,-0.4686738686,1.4575169495,-0.4721790768,-2.5190983772,0.4642550155,-0.4152621336,0.0795467922,2.4881247593,-0.5097832914,1.034287892,-1.5863963998,-0.4418109912,-0.3448222537,-0.2872376711,0.6200593315,-0.2181316933,-1.1810267918,-0.3599325515,1.1713662654,0.7130849186,1.3677252554,2.1000535731,0.9579017231,1.0467346087,0.279058642,0.7915684124,0.394627026,3.7907128463,2.2762857855,0.2620097323,-0.3389522849,2.410084701,-1.5456064058,-0.2569996498,-0.9706368248,-0.3474008146,3.7343728786,-1.0148979324,0.1903318591,-1.5620358776,-1.8002364403,-0.2158755963,-0.5763075451,-0.3304093911,-1.6800785288,-0.0926695302,0.7524091021,1.7178486986,1.7697797436,1.8521368337,2.5598921017,0.2953333159,1.3625897568,-0.7124752317,-1.2950768904,0.8544999876,0.4760487318,2.2223820326,3.435132556,2.7195216824,0.2606607654,-0.4467115377,-1.4471697304,1.0754034825,2.9733685106,0.3799030633,-2.6566209039,1.4245605737,2.5896571637,-0.317819668,0.4159702775,-1.456117356,-0.0607796703,3.2554453071,-0.9561827392,1.7226789433,1.0194137242,2.4838413147,0.2452338018,-3.0763862432,-0.1621132263,-1.0800164745,-0.301797863,-0.3216034261,0.1106808901,1.3130058828,2.5372125342,0.0843307508,-1.4661348605,-0.5588520669,0.1945020597,0.325394587,2.2637282047,-0.9271993682,-0.3504072437,-0.0273162155,0.4455063677,2.2521478671,2.1072226576,-1.2738348102,0.3544545859,-2.1447241602,2.3466207275,-0.7738135355,-0.6284666194,-0.3594812091,0.2797655674,-1.2082046501,-1.7339564894,0.5255991888,1.3650424788,-2.8137703448,2.2738659127,0.0586703669,0.9112224121,0.147031906,0.2273921592,2.0161741138,0.8352529792,2.2638500294,0.8049969559,-1.0735885781,1.5398604951,2.1641832655,0.6533335741,-0.9127876349,2.5066333273,1.2353582017,0.7030443439,0.1533734891,1.0385608773,1.6946521261,-0.6086705984,-0.9095695079,0.7853128484,2.5174282254,1.1597689241,-1.1548880542,-0.3386984504,0.5809006303,0.1780640212,-0.3374822997,0.2681384553,0.9486433907,0.659937037,0.0373596503,-1.2423938399,-1.9485747224,1.8056269799,-0.7552535631,1.7796179198,1.665981892,1.5722881152,-0.9299646039,1.4725854871,-0.2451332935,-0.4572813531,2.4938303643,-0.2801830402,0.605142938,-0.1361367949,-0.5372282859,1.2232995578,2.8005461008,1.6068797985,-2.8355269129,-0.9743946434,-2.0579500416,0.3657378991,0.4613296031,1.172529586,1.6615762607,-0.0050139786,-0.8169128837,-2.6967574559,-0.7467341038,-2.3177058141,-0.6107083549,0.9254320373,1.7541508077,0.7122626291,0.7311682383,1.505900221,0.3791643588,1.9640241859,-0.3880402464,1.3075671342,-1.4785742784,1.5355231097,0.549503237,1.5224152973,-2.6723305353,2.6672149003,0.1595055863,-0.7664353611,2.0589080473,-0.721448488,3.1698383517,2.7785362843,1.0107140785,-2.2071525465,-1.5121642216,0.3648393121,1.086455739,2.4475097842,3.6049461791,0.4892915114,1.0867973277,1.7924872137,0.0167142896,2.9897322658,0.5595299865,-1.6978884029,0.7962163702,-0.9682733924,1.5583158055,1.2486569871,0.0981436249,0.765529077,-0.8893800644,1.8092430819,1.8367760682,-0.2369761575,0.6118333499,2.0678855358,0.0684879231,-0.0125368505,-1.6994169925,0.3254841839,0.9343441116,2.2250289648,3.2843539028,0.1565644345,1.3626188847,1.3170590088,-2.341132342,-1.6533341234,-0.6230020236,-1.8775822596,0.457260184,1.735697758,1.3912504543,3.5772240369,2.3752492456,1.6167720314,2.3556271829,0.2974502009,0.7206463502,0.3040235666,-1.0905082545,0.9233710763,1.9893874893,-0.9180974009,-0.088713223,0.2222267609,-1.7058966583,0.2804631013,1.852184734,0.6301546978,-2.7779516461,0.1851041917,2.6267208292,-0.806763236,0.0567951305,2.236042626,-0.9656916421,1.0655445977,0.7123012253,2.3902315695,-2.0007153923,0.4638592738,-2.4455408795,2.583591052,-0.8369046608,-1.409237709,1.1928577935,2.9505846135,-0.7819001008,4.1042246441,0.4723228294,-0.2705988065,-1.1829872804,0.3718401573,-1.4435229997,0.0264073339,1.3566218315,-0.445271654,-2.1214619125,-0.3415732408,-0.8815078377,1.0725424482,-1.5733589527,0.2709453354,1.5749897408,0.6147808351,0.6872056353,-1.0827173069,0.5788747759,1.5823924329,-0.6027172221,-0.3788343232,-0.9685176857,2.2809104364,1.86179917,1.5425087815,-0.5650487305,-0.0737654054,-2.3499814516,-2.2753081559,1.3697871876,1.3358803365,-1.4642743395,1.2102208186,2.3235459018,-2.1395509021,2.6105137358,2.6351033766,0.8810961172,1.3801088372,1.2799865948,-2.2817564471,0.6701313436,-0.7185868773,-1.7577693692,-2.1825842388,1.9182383135,-1.7923265463,0.3739436116,0.7558717093,0.4811870616,0.809226194,1.3539000339,2.4639753491,-0.2604718759,-2.4101767821,0.0039649941,-2.2173769298,2.3535412164,-0.1272696053,-0.9027337817,1.2666821503,1.2759048478,0.4504329648,2.116976413,3.2189180729,-3.351238932,0.2663941899,1.0938613566,2.3144656767,2.8274312327,-0.1331707723,-0.6631270313,-0.70527892,-1.5073260046,-0.5359259747,1.3477305536,1.2202960964,-0.6202727979,1.2372658761,0.0986824838,-2.1293316452,1.0373695359,-1.6187618977,1.2875577255,0.193847468,-0.0680721747,1.34861578,0.2299203777,-0.2600857539,2.2773188056,-0.802346831,0.3456644238,-3.3465862233,-0.4168660356,-1.0137402481,0.7444146301,-1.6578520464,0.1870145691,1.6579062201,0.4706763192,1.5689110491,-0.4114672537,0.6437646341,0.8891711857,3.0060236917,-1.5253950902,-0.5401749364,0.4669032894,2.520491545,0.0522955937,0.4106981444,0.1012565585,-1.0366864647,0.5983666113,-2.4751428844,2.0050539868,0.9116274133,2.2996492797,-0.1481008261,2.7156653891,-0.0766384132,1.3654016999,-1.0399281192,0.7653140495,0.1215903094,1.1315928238,-0.6754614697,-0.1350565002,-1.3808677751,-0.4172850338,2.4975400235,1.0937753976,-2.8037347115,-0.7396141853,2.2905583436,2.2514541829,-0.4229365226,2.2962643819,0.082253998,0.8491086664,2.9630092662,-1.949748454,2.8629670566,3.6313484334,1.547797372,-1.9462372232,-1.3364162369,-0.2101713937,-0.2414753111,0.4045907169,0.0513035489,2.5192871836,-0.0980497115,1.0160149843,1.1284510531,-0.4644483948,0.9831343199,1.7713047485,-0.526012351,-0.5753871444,-1.2815735658,3.534513163,1.8319890192,0.0312770233,-1.8797356223,-1.4672517701,-1.5956833538,3.5068949674,0.3891313947,0.3818824704,2.5187664679,-0.8957262356,1.3360685618,0.2045173069,-1.2286115306,0.4765194636,0.9205672277,3.4121343659,2.2673772285,2.4187462983,1.4361660024,0.3533184187,1.2464821582,3.050102866,0.8831013381,-1.1353154308,1.0071178995,1.2222293504,1.4762722486,-1.6277400513,0.2303450452,-0.8753876313,-4.044971933,0.0235925701,1.6312914668,-1.0202885869,0.7106489605,-2.179607821,3.1068840105,1.0072083541,-0.3907169662,-1.6640049886,-1.1713438572,0.8612645556,-1.9378986174,-1.1826847102,0.2890316269,1.9814980299,1.6588537594,-0.2843769629,1.0033668673,0.9594203353,-0.2144049751,1.575570381,-0.4168368281,-1.3646378139,-1.4714934304,-0.8571200191,3.5650114156,-1.2465531435,1.1333321618,-0.1019994797,2.3413088296,0.334993618,1.0008901756,0.2561515593,1.5428768002,1.0892601171,1.5807027544,0.9548112938,-1.4404469088,-0.2660566101,0.0489063699,-0.3387654103,-1.4662843629,0.8241437973,1.7098950132,0.0469599037,-0.0717676578,-2.8272229904,1.6604945072,-0.0493262338,-2.7477392733,1.0620801913,-0.1606902765,0.0009617646,2.1945345732,-1.0911556851,1.65853278,-1.7637026979,-1.881280722,1.1876966908,3.2917167663,0.346874254,1.9328075837,2.3389785011,0.5389293126,-0.7929385919,1.0575043618,-0.2167799031,1.1569341433,-0.1172845182,-1.8275549428,2.0692315552,-0.6583658624,-0.7150855522,1.5091399306,0.2501926655,0.2392907414,-0.8743520417,0.4615157394,3.2007344736,2.0369147489,-1.5571410226,-1.1235377488,1.5039585426,1.2010649537,-2.7680946321,1.8635510105,0.2545841016,0.1537691851,1.7957761503,1.3828199092,-0.1697648115,-3.2446736995,1.4361187207,-1.1503986442,-0.7143557795,-0.0387564561,1.3975766887,0.4132727667,2.0728138686,2.9551083956,3.2897905824,-0.0328186367,-0.8329930943,1.0074392933,-0.0047224945,1.2049832613,-0.2834298542,-2.5092970847,0.3731261577,1.1960708977,2.381132067,-0.1009596247,1.3473321123,-3.9199411491,0.7752386581,-0.3810759565,0.6032596688,0.6691189606,1.5270178105,1.9502590465,0.2326999899,-1.6327213682,1.2880515532,2.5883105283,-1.8821644077,0.1711713122,-1.0158300806,2.0563637368,1.6935510101,1.2142668241,0.9912215309,-0.1838707283,0.3688371766,-1.4650097365,0.3581329505,-1.2200296719,1.1428433241,0.6361461067,-1.0960598574,1.6728446969,-0.0184867143,2.9231721819,-0.3714100147,0.6538837682,2.0792691266,-0.5175267877,2.1786616133,1.6944793095,-1.9346492531,0.2356305765,1.3397416325,1.8824746718,0.9741873885,-2.0315777695,-0.627790985,-0.4307090398,-1.3950802374,0.6812148502,0.5804266122,-0.1616724678,0.0979962393,2.1308620847,2.3097712532,1.6473381043,0.7223206844,-0.2372657069,1.4739460067,1.8662269323,-2.2833505913,0.0909641162,2.7115383933,1.9156985838,1.0013856673,-3.5758310632,0.1592100936,1.2159183076,-1.2036296853,1.3548269583,-0.9983996183,1.1635847736,1.7362772763,1.1335559384,-0.700828407,-0.4051451898,0.3673020031,0.1160924468,-0.1540711804,1.613923887,0.3108437125,1.6194401673,-0.6379228975,1.1588110053,0.2934443923,-0.9151738929,1.8407851981,0.1165906049,0.5550916689,0.222765222,1.0357415986,2.9700745085,2.9225602329,-0.8401307089,-0.3732139982,1.0205286341,2.7941088764,-1.0100231934,0.1432794233,0.5111953477,3.5743522052,-2.1656319839,-0.0777298347,1.1161926506,0.1432854988,-0.8224143111,0.3890050761,-0.4456725846,0.8661340518,-0.5594072294,-1.0796111135,-0.1114346853,-0.673952908,-0.7783724198,1.3278473461,-0.8823829588,-0.9573965061,1.2277081721,-0.5690932889,-1.3598311445,-1.7043874318,-0.4616865955,-0.3450250609,2.1371349842,1.2049865524,2.3544921499,-0.1963682194,-0.2673745268,-0.0151870467,1.8413252583,3.9840660691,0.6336302021,-0.6661751368,2.7989687375,-0.2017451564,1.9136928206,1.114109049,-1.0820620135,1.0840545286,1.2583320713,0.7804559598,-0.2870737086,2.3465752263,2.0855776304,1.6809059229,-0.2400676848,-0.3535737094,-0.3903511523,0.7386643572,-0.3514229426,1.5311990644,2.7452243151,-1.9438947545,-1.4532085441,1.5161989167,2.1346862223,2.9884789411,1.0059358679,-1.0977308325,-0.0411541565,-0.7498793785,0.1582481732,0.2717311997,-0.7715867142,2.051038186,-0.1907207645,3.4949353351,0.6544811413,0.6134522824,-0.6484400448,1.9036986136,0.3933724863,0.8513861164,-0.2110621558,1.6747696552,1.1260378563,-1.4258867626,1.3047418749,1.4241475838,-2.7383021363,2.7880271732,0.717325505,1.2740133644,-1.5376912136,0.0442239122,1.6068373199,-1.2695520228,-1.423852276,-0.9461446554,-1.2251873777,2.3846257073,0.8932247127,0.2488020704,2.807790624,-0.7195089237,0.1575420297,1.8096915925,0.747408716,-0.7954654651,-1.5868354875,1.1681674574,1.274458024,-1.290558977,-1.342160702,3.2341679416,0.3141412242,1.1585953477,0.7330303507,-0.4314290663,-0.2341257504,-2.1281151392,0.2232016142,0.0280173232,-0.0980176329,1.5025118471,2.7651786752,-1.1598672112,1.1501958025,0.214778169,-0.1131575946,-0.4679242614,0.3421017738,1.2948616547,2.0249331745,-0.4433814388,-1.2029999361,-0.5021528663,1.3191586879,1.4259999281,-0.5583389394,1.6940989474,0.4207516942,1.5125059445,0.3626098454,-1.24145986,-2.8043384741,-1.7061291145,-0.8875654901,-0.6943999061,-3.9274953897,0.6155037197,-1.2933066256,-1.0518873339,1.5994411232,-2.8944646643,1.4789544127,1.4335400662,1.3386052045,0.5569149431,-2.7546292586,0.7898714833,-0.0994716634,-1.3198256585,0.4459140985,0.8724814075,2.1593478573,0.0816384435,0.5418622193,1.9118802827,-0.7805689132,-0.2171874462,1.2018323552,1.8823531801,-1.9837578734,0.6748508273,1.2553701961,0.1974259049,0.5313199128,1.7168965859,0.2341587969,0.4586050002,-0.4424136506,-0.0138591971,-0.4649515889,2.3452810476,0.4228270564,0.0014020477,0.4014757736,-0.6885829359,-2.8591982994,-0.2569771119,0.8488798415,2.3778900771,1.3434511747,-1.5699249639,0.5404250979,1.036640585,0.1284131841,-1.5802183029,2.2018817509,-1.0313656844,2.8619568214,-0.2656104529,-1.0688635525,-2.1569790673,-0.2444358244,0.4540286561,0.5630301245,0.3880219231,-0.3089642362,-0.0232915574,-0.2094956865,-2.4479405655,1.3207762231,3.0381585202,0.0017670258,3.1665018936,-0.5717086561,0.344606255,-1.2920695852,0.307632896,1.724202037,-1.8794032028,0.8608631644,4.8741499919,1.6254359234,-0.2943426557,-1.0794583358,1.5603501913,-2.375156743,-0.2046001872,-0.6129415988,-0.8372530286,1.0377153087,2.4967996579,1.5025832479,0.5870753931,-0.3111944591,1.7234038334,2.5932774562,-1.0097404139,0.808921841,0.3799131399,-1.1537668366,0.2311575066,-0.4714742888,1.0358212986,-2.9933397445,0.5017070223,-0.64333359,2.1899004659,0.9160437212,3.4276555222,1.6263193337,-1.2727206451,1.0563731501,-0.6841037139,0.6652804856,0.9861902804,-1.696382618,-0.2647187994,-1.0193580725,-0.3877153305,2.1277570614,2.1469835041,0.2327627914,0.4007667431,1.1224510972,1.3091668354,2.6357243591,2.6059410537,-2.7922893107,0.6930663557,0.5349055167,-1.5594958944,-0.1200223993,-1.9329189166,-1.5498722214,-0.1623313404,2.0492218618,1.8873655127,0.9297247332,-0.3987097805,2.5126439485,1.0802197664,0.3578669813,-0.5628553746,0.5438079431,-2.1520674931,-0.005733826,2.2826897845,0.8008028418,0.6457620291,4.3414881161,2.3306515558,1.3555822639,2.0155684757,-2.0307269817,-0.1686762635,-0.0268700873,-2.4779635292,-0.6446491927,1.1832683145,0.346463172,2.5457665459,-0.9610698505,2.9849181119,-1.7063517854,-1.7728471185,0.4306660732,1.2587639735,-0.5303247548,-1.0729359035,0.9253608638,-0.995412033,1.4214637133,-3.5301666248,-1.0695909352,0.6154762462,1.3259012358,-1.9925062391,-0.3261990429,1.4170955438,1.4007047173,-0.3506410619,1.9738043837,-1.2666543974,-0.3043978927,1.2212775117,0.1603005069,1.3673003345,-0.8691515501,1.2692537964,-0.8177056252,1.4627256487,0.8379110554,2.4409257369,2.1500543171,-4.1496362211,1.4472617948,3.4221826511,-0.3890418666,-0.2936551102,-0.0307804774,-1.9361079282,0.1658764226,1.5515939033,0.3898061203,-1.0816534453,-0.6147214316,0.3965791303,-2.0719305134,0.2059718171,1.2019590288,-0.3765968611,-1.3450820703,-0.2581887804,-1.6650000333,0.2555383124,-4.287904426,1.2161961883,-0.6429171576,-0.1908157514,-0.9828573032,-0.7174123842,0.4857608629,1.4572714306,1.9665221086,1.4302408075,0.4172124489,-0.2270503839,1.3011013502,-2.2163055707,-0.499707636,0.7309043733,0.1362564847,1.060831068,0.5076428539,3.4418379331,-1.4984125204,1.1384245462,-0.0393612774,-2.85946226,-1.9452969565,2.9320352298,0.3848772646,0.4600937661,1.9217386398,-0.0902119344,2.9085941824,-2.2531040099,2.1239256746,0.1758373494,1.5428474495,-0.9795210961,-0.9878024026,4.5294545119,0.1758346177,2.5230830961,1.2374465872,0.9011540473,1.5672075076,1.3150417991,2.9669968236,1.5984128306,-0.6931086235,0.4861711514,1.4703684041,1.2595280401,1.438777606,-0.7878251684,0.5030430882,1.5185594501,0.2782544739,0.9953200295,-0.0818788244,0.4575695085,1.7822231623,1.4307184256,0.4640823374,-0.16834572,1.0894309988,1.1475686503,-0.4816884681,-1.6600916993,-1.5643065197,2.3421489346,-1.0963167052,-1.7731292748,1.8664121574,-0.4617977996,1.5733454291,1.2484563766,0.2256464869,1.9115306748,1.1928736205,0.3578110116,-1.579440777,-0.1238839222,-0.5964519066,-0.889793604,-2.7936235203,-2.3035855404,0.7302783041,0.5693339317,-0.5602699959,-1.422388778,0.3286934947,-1.1892579783,0.4480725447,2.8779942733,1.2806350018,-1.0359910895,0.6226399091,1.2582789461,-0.8373330653,-0.4899197306,0.5071250425,1.0543750519,0.5561768115,0.7817601823
   0.3181545335,-0.0289636641,-0.9019189417,-0.4090815467,3.3830339633,-2.0555340314,-0.488807201,1.8465488963,-0.7876106318,-1.8212718863,0.7531650223,0.2006895534,0.1386524447,-1.0422326993,1.6071325762,0.6751307,0.2268633106,-1.5082847158,2.019533483,0.5291935023,-0.4669947466,2.0605803311,-0.4807467916,1.9057907695,1.9674695141,0.0921627482,-1.004939478,1.9205532046,-1.5959713809,1.8342024415,1.7984320916,1.5136784525,-0.6323692248,1.2727501143,-2.0280415946,0.9304681692,-1.3874738951,-0.4283547093,1.7602102166,-1.1868009859,1.5960993065,0.4835333084,0.1026664207,0.9029855774,1.5301536312,1.8552981888,1.8509157352,-0.97041266,0.3360044154,-1.960084185,-1.1628932874,2.3721910688,1.0991346063,2.6100085543,0.7535040127,-1.0032633897,1.9022696183,1.6386773033,2.1693371382,0.25725287,0.4473323658,0.8748732406,0.4825044961,0.9978425719,1.1414054982,-1.3589379859,-0.8405044554,-0.3520856882,-0.1088684442,1.2202283946,-0.1775899841,2.4739212828,3.1460310479,-0.010366465,-1.6313347954,1.6773324447,1.6251656918,-1.7990437604,1.8786554427,0.1890950509,-0.9204928682,2.0736275668,0.8369866023,-0.1570078609,0.4238362152,-0.691036002,1.6880185362,2.5694029212,0.5505379076,0.3221645854,-1.2375937024,-1.5673278006,-0.8827054349,-1.2484782101,0.6009847314,1.2470761286,1.7659996024,1.2078962713,-0.4567744142,0.1375936868,-0.3948493299,0.1751129887,-0.1406525462,0.5056562695,0.5418949781,-0.5068188915,0.8704806342,1.0342304432,0.6075154744,-0.3620655171,-0.0320199444,-1.032548575,-0.9615883218,-2.1852757595,0.8686966728,1.494541672,2.0456930397,-0.3126864324,0.9452034125,-1.0832462061,1.6796288529,0.318495752,-0.270913811,-0.9516226824,2.4178219162,1.4727532836,-1.1242003713,1.1077537848,-1.8676843338,3.0847405459,0.7567509442,0.718505633,2.2518427206,0.7074081438,-0.6075382423,1.2359557437,-0.9855286708,2.0056264999,0.8677712346,0.6555945485,-0.5989573793,-2.0784519703,0.7005953994,-1.3584628811,-0.4865365069,0.426485889,0.5163728226,1.620953051,0.1184636218,-0.5855194762,-0.4427217519,0.8412457504,0.5133013514,-1.3182125682,-2.6220548159,1.0609565829,-0.063124215,0.9992044738,-1.082204351,-1.3621891732,-0.057363073,-0.8317643746,-2.4382894793,0.7263798087,0.1191807932,0.4828869166,0.8119928478,-0.4285542388,-0.5680281075,1.4145977798,-1.7848173664,-1.0261458897,2.3940927769,0.8023485954,-0.5558965905,-0.8889570228,-0.8964809008,-2.0255509268,0.0218806769,-1.4906214593,2.3020414037,-0.1550050512,-0.40194522,2.4369812578,0.4055118847,0.280874567,-0.3293551672,2.207949441,-0.6536167695,1.186233885,0.0300527154,-2.15483727,-0.1045539956,-0.5735132431,0.3739063672,-0.0766621824,2.3733325853,-1.2364099087,1.8740036192,-0.4232919845,1.6919419493,0.2135638901,0.1425166695,1.749682039,-0.3570920165,0.8468737559,-1.5001379722,1.8612436182,-0.2105050336,1.2644281968,-1.486617925,-3.2937029061,1.9236494898,1.2283712691,-1.9293245308,1.6320898078,-0.0125590351,-1.389257058,0.5204056343,1.264955205,1.2476750942,-1.1878304963,1.6340232831,2.7605119552,-0.1833981141,1.8519851718,0.2993789454,-1.4063095366,0.0755878523,0.1604242792,3.0126931158,0.289622235,0.6307632526,0.3525637941,0.0958797244,1.2444593184,1.0917820033,1.5065228714,-0.4564036572,-0.678993436,-0.8043744367,0.5476517957,-1.0665685112,1.128096248,1.7446265736,2.0047555886,-1.0305279731,-0.2116993633,-0.3028236747,2.3225211411,-0.963454215,0.0836343311,-1.0409712687,0.2317273684,2.5722849983,-0.1894389619,1.8415562048,-0.076418311,0.7737404635,-1.2047838309,2.4336662966,-1.9181945311,-2.3605766655,1.7267804684,-1.3536454154,-0.6357200235,-0.2252279484,2.1772040518,1.0464393643,-0.3277674916,1.6634593103,0.911895094,0.2353248633,3.1686533645,1.8357998158,1.9645058517,-2.2840006361,1.3278648125,1.1661759986,-1.2125106753,0.8518665497,-0.6724519198,0.2584155273,-0.2673214352,0.419592456,0.2694707782,-0.9239102564,-1.3360845222,1.3159193192,-1.3778450616,1.9244010024,-0.0586473497,-1.2932273495,-0.1406602739,0.5418662889,0.8187283412,1.0807957094,-0.4736562867,-0.0419477976,-2.1986695577,-2.140282986,0.0137829259,0.5168732465,1.5315185442,2.3586849305,0.1463364232,1.4145189198,1.7493928989,-1.4775384749,-1.8361735626,1.2394993386,1.2620239292,2.2997529112,-0.6744274539,1.1431533081,3.7612510804,1.0264340198,-2.1689706586,2.3526496447,0.2716883048,-0.1983742047,-1.0941352085,-0.4369234754,-0.7300173497,1.4337002462,0.5661305084,3.5530129555,1.1288537371,1.3505981195,0.6046485352,-0.4246679957,-1.5068234918,0.0031045828,0.3045277468,0.988531011,0.4286342259,1.2717014213,3.7131762631,1.0282719707,2.6796470193,0.863918965,-0.4901483639,1.7297361196,2.7473965423,-2.6421980929,1.7785991853,0.6676733877,0.9294839706,-0.5396967863,-1.9970210142,-0.3256897978,1.0520545743,-1.0592022278,2.1483018302,-0.3862355289,0.027607851,0.0270874951,1.292316032,-2.92998239,0.0006930619,0.0925964567,-0.1164865665,-0.2612410804,1.4043351623,-1.755858535,-1.7482023514,1.1461199352,-1.6528724863,-0.9400412299,-0.4746871863,0.4068416696,1.5196482722,0.7934750442,0.5533306468,3.3115587704,0.9748589568,1.7888759132,-0.1645384526,2.4865701246,0.6878315653,0.3509237224,0.140846988,-0.15086319,0.2927907745,1.5386123819,0.9473556613,-1.0624466815,-1.7604347943,-0.951577526,-0.6872253108,0.6679357606,0.3580858618,-0.5110947712,1.2096107737,-0.390960058,0.0464419767,0.6663836304,2.5000844297,-0.3272444671,1.7069144774,0.1245254369,1.8248942454,-1.0602743362,-0.5930046773,0.0058908972,4.4679717343,-0.3789487534,-1.2102264379,-0.545679303,3.8846846597,-0.2757237936,-1.1235967748,0.5402542842,1.9855601398,0.2617233692,1.2943961495,1.5962049475,-0.0151216426,-1.194680839,1.3724040399,-0.3392544716,0.0705861121,0.2044969243,1.9376103792,0.2379649302,-0.7288754058,-0.9835830351,0.0950442334,1.6666164317,-2.0085172477,-0.2051213307,-0.4877489006,0.7745461147,3.4431528252,0.93904986,2.7730047762,0.3871086864,2.0486707124,-0.0146044459,-1.3733959137,1.4054050021,0.3788292769,1.9957183712,2.7174789943,2.8377537575,-1.5726738225,1.5940123412,1.5606241131,1.6324716933,-0.0727006373,3.3322205262,-0.1077622678,3.7459500675,0.673661922,3.0356819863,-0.2877850093,1.1823708097,-2.1498220163,-1.2969815285,-0.7269332433,0.4377463192,2.2332629622,0.2171355488,0.5821428166,1.8008610269,-1.791087372,1.5576075057,1.8494010487,0.6020762068,-0.525187693,-1.0756638556,0.806435432,-0.9924281058,-0.2697442748,-0.2340860907,0.3970691876,1.0318796979,1.1496056607,-0.9191518295,-0.9025024249,0.6427906792,-1.5042048156,1.0039476555,0.11053972,2.4342439201,1.4939819187,0.7990427762,2.538361983,0.5817237552,0.1590164801,0.054743465,-0.0155350588,-2.7906019815,1.781596097,0.0494140351,-0.3328061821,0.321118261,-0.6356917975,-0.7619465607,-1.8768866685,1.2339347558,0.0773024199,0.4072947903,-0.396985482,-0.7482575185,3.5274472123,-0.3857049024,0.2013592752,-1.2952569293,1.21038628,0.5760622284,-1.1675919623,2.46835399,1.0589661499,5.3160837698,1.1309559075,0.3085445256,1.573857639,0.8793843967,-2.4240885283,0.282541984,-1.8135376771,-0.9465153094,0.6799069351,-2.3950562179,1.7365542752,0.0858373541,0.9362727685,-1.0398825762,-0.623707391,-0.1890318124,-0.1578937077,2.6421925728,2.1079682571,0.6810455788,2.9151871944,0.5888445559,-0.2860141153,0.6170650104,0.3326531357,-0.3516490943,-0.1100359995,1.5555529361,0.7924353114,-1.1536537778,0.6854202642,-1.2126725822,0.2178453674,0.8743455678,0.342634244,1.2126802455,-1.6947323349,0.7910994483,2.0927224984,2.0571548608,-0.53906006,-1.2831720875,0.6747746759,1.9216447234,0.424834093,1.876254659,-0.2206981909,1.7620752152,-0.4951125324,1.0607827973,1.3419898159,1.0584224588,0.9349577436,-0.4299922506,1.8706452337,2.5912552161,1.356124657,-0.9543183812,-0.0726568597,1.771484251,-1.1342212415,-2.0015315761,-1.1294842483,-0.935673725,0.139255273,1.7631145892,-1.8286426144,-0.5048733355,2.451200843,0.9469294954,1.4065259145,2.2173786475,-0.3014425136,-0.2703866809,1.1661956004,-0.1283605483,-1.5369342291,0.2674944878,1.8046487198,1.8478109972,-0.2079618267,1.4430023002,-1.2389291671,-0.363751633,-0.5765925965,1.5920067847,1.4006682438,-1.0213142166,0.9471559439,2.1223061555,1.7540515224,2.0815996046,1.884886452,-1.0693683271,-0.4180631583,1.8490789364,1.6320795513,-0.7994096762,1.4348429212,-0.0537952895,1.7723761501,0.8993468293,2.6747612122,-0.6589715535,-1.5625768817,0.900560055,2.2957581482,0.9213836233,0.9168570445,0.1650540096,-0.1018712645,2.1470344213,1.1908142564,0.4747233176,0.5394852303,0.2878590228,1.7053894633,0.2460941072,-0.7965087253,-0.8653231611,0.7743981819,0.1610115175,0.9372586433,0.3308019933,2.3237670126,-1.4541490823,-1.3677738829,-0.4259218213,-1.1179504925,0.0706908771,-1.7563228607,0.0312072542,-0.9154791894,1.6442415026,-0.2904972488,-1.2184742733,-0.0725519856,-1.8130811139,-1.4811381648,-2.3707758996,-0.7493018684,-0.4460653224,0.2181505577,2.1210358066,0.014726058,-0.2588363398,-2.211606181,2.9414451309,0.6081410726,1.8301754148,0.4749609842,1.2018899305,1.5496212665,-0.2761477594,-0.511323036,-0.150076259,-0.4647625689,1.0292014084,1.3763336638,0.46965229,-0.5327259161,-1.5470058065,-1.0161060637,0.4690309118,-0.176732133,0.1879209052,2.5123856909,-1.0989650571,0.9498538156,0.3646493094,1.8097058568,-0.1284420688,1.2354450921,-0.6437935902,2.1361949041,-1.3757679274,-1.4771944248,-1.2110937697,1.7468698392,1.7367024405,-3.1813541797,-0.1143095884,0.543024469,0.4703380608,-1.5492714894,0.8956351774,-0.4044560605,-1.2907767024,0.2491166286,-1.2016672101,2.3338004254,-0.5047796582,0.6078936182,-0.3500623977,-1.7367484504,0.0572449312,-0.9140381863,-0.0228330939,1.9592788937,1.1047200739,2.610686702,-0.8734065608,0.2746512555,-3.3793419844,1.039790299,-1.0554527264,1.2222136651,2.3164497807,-0.9633213041,-1.5902388367,0.6961367417,-1.1733095861,0.6930079152,-0.0006189354,0.767698597,0.0194368208,-0.4706155168,-1.2813490946,1.8257920753,-0.8445878389,1.1690788198,2.5827370286,-1.1033272111,1.4473535755,0.8923167457,-2.2320556993,-0.2913459919,2.362157997,-1.3350172686,-1.1711818172,-1.2660913411,1.4085305633,0.3424761635,-0.2428372926,-0.5781241357,-1.2575276985,-0.4945583386,2.4636844216,2.469778955,0.6923017996,-0.3191283927,-0.9312525363,-1.45557403,-0.13454967,2.7724408388,1.191579626,0.5235488413,0.3458400452,2.6421969251,-0.7853944427,2.3221977666,1.369533489,-0.2892078504,0.6207781276,-1.9136019317,0.7672167627,1.175290427,2.2311582615,2.1637237123,1.946232794,0.2462574286,-0.1991819688,2.4950703791,1.5724753999,2.92045726,2.2148236922,-0.0072214256,0.5220459856,1.749796674,2.1550537843,0.8236172014,0.4907575055,1.3795519493,2.4975693206,1.31362437,-1.1276527381,-1.5720712526,-1.0717796093,-0.5606177255,-2.8586825861,-1.3958181158,-0.2135169165,2.6586550644,1.5008253796,-0.0469885626,0.6772110676,2.0385806424,-0.0893321867,-1.4012137879,-0.0890822059,0.5855471321,-2.2566027983,2.9619392092,-1.485729505,0.7121305206,-2.8653312826,0.3016435567,-1.3570629271,-0.8613953449,-0.9935935714,3.3710214073,0.7722826562,-1.3680258931,-0.7158993411,-0.9291499538,0.9110285649,0.5050879,0.0436574027,-1.4792389114,2.2106746955,3.6442788046,3.1475473581,1.2226987037,2.3478358124,2.8849158012,0.1891991843,0.2995740784,0.9661491187,3.0203770345,-0.857851159,1.7910847949,1.3751846128,-0.4422092706,1.1293761436,-1.7031044814,-1.0791970163,2.4479634926,-0.9864972441,2.057733354,0.1440505581,1.0907557647,1.124820601,0.6638489215,3.2584692421,2.2211073296,-1.113583409,2.1863301325,0.1536048596,-0.0308653485,-0.016335837,-0.3686694708,-0.9846028491,2.6894412988,-0.1235226331,1.6139797175,-0.1188117879,-0.3750319205,-1.6049657744,1.2827084349,-0.1832946525,3.4421374904,2.8765545454,-0.3598382705,1.5153461538,-2.0010654465,0.4657164218,3.0816829387,2.0949898755,-0.3311344408,1.1076447599,-1.3610567991,1.219824769,-0.3264997556,-1.2989344418,2.1766180222,-0.9135274315,0.6132644363,1.8564781086,1.9184104676,2.6360668286,0.6409531095,-1.1676722556,0.9735897211,0.4208325693,2.4492652161,1.0292130271,0.6368725784,-0.7316831802,1.0330057383,0.6045890295,1.063889811,0.2487291878,0.1673334914,-1.4243430017,0.7124515641,-1.26878965,-1.525574636,3.4052615645,2.9245264732,-1.3876850851,-0.0450516891,-0.9805592168,2.1620908657,2.095116506,2.7513332813,4.1942549719,1.0166000415,0.1316924773,-0.786573356,1.3518224974,-0.6953559105,2.4209756386,-1.7904892066,-2.5734864977,-2.3069962799,-0.4681029825,-0.8052321196,0.149359489,-0.3348085182,-0.6454969103,-0.8108026378,2.296847457,-2.5845897887,1.3799681027,-0.6218356658,-1.772415975,-0.4116194722,1.8290356173,-0.8192430966,0.0484140614,-0.2148340018,-0.2395185472,1.3078360567,0.003005123,0.2019528146,-0.8190164384,-0.2610844435,0.105460873,-0.7223082097,1.4931663048,-0.805772628,1.7998292732,2.0177449577,-0.318755921,0.6861059765,1.109425876,-2.0072904153,0.4112766927,0.6250854525,0.3639539497,-0.8555261381,1.5364534249,0.7600632028,1.1823358181,0.7455582288,1.0763419584,3.8217121932,-1.5498759422,1.8287669893,2.1233466311,1.9811787549,2.2192668047,1.1922414901,-0.4786731661,-0.689349401,0.6523020035,1.1976193963,1.4086367216,0.9457438419,-1.2079331715,2.8454854087,0.4341942533,-0.8535073653,-0.909035672,0.5068808732,-0.4178877314,0.7885724104,1.4657036502,0.1538905925,1.581405587,-0.0961048619,1.1313265392,-0.9191874747,1.6427110473,0.5575032764,-0.718224871,0.0500793796,-1.0004410049,2.4582839714,1.6422596794,0.7275539937,-2.4983650929,1.3586800808,-2.2696960005,1.7158116033,-0.7650582256,-0.1622371908,1.0177219862,-1.9407809271,0.0158382619,2.5393616569,-0.8232402045,0.3498701919,-0.9587654622,-1.2917331149,1.5006334589,1.994482954,2.5510400945,-0.1062564519,0.1086345394,-0.5922401414,0.9984948256,0.9387639317,-0.8077313586,1.2653619895,-1.5449224795,0.0836931636,1.6250768215,-0.9498530413,2.9441196857,0.3517883454,0.3176485936,-0.3598334665,0.3330941878,1.9937440799,1.0459876781,0.7206807487,-0.1990916574,0.3531071628,0.5113128062,-1.0487106014,-0.4802681981,-0.0833223392,-0.688771629,2.6979778677,2.3163366468,-3.1508179131,1.8879622812,0.8538557006,-1.4374638939,1.6886590248,1.6955217321,0.869794032,-1.7557867464,-0.3564432392,2.5783414891,1.3393830582,0.4894420554,1.2197290067,-0.8550680426,1.0304059758,1.237033311,-1.2831325198,-2.0512274576,-1.4757610722,1.7524679785,0.4338832041,2.2208763762,-0.0456709677,0.529604869,0.6729932951,2.3182582212,0.3299530069,0.7308474094,0.8659840932,1.2698375222,-0.5805454671,0.3330436292,1.4423649854,-2.2526477649,1.6801451242,-0.5779005775,-0.5655099211,0.644651529,-0.0079879051,0.9797923853,1.7016334268,2.0000598178,1.8710451253,-0.7313048449,1.0202398646,-0.0372748268,2.2828100188,1.3707768631,-2.8522567422,1.6770759687,0.6364150007,0.5160064824,2.3951865476,1.0756801391,1.5349820369,0.8131779033,1.3184281543,2.0062180869,-1.7084882182,-1.3583080495,-0.1971422404,0.4800500306,-0.5872257963,-0.3227671695,-1.3615165709,0.3703990807,3.159976844,0.2479924162,2.3316971098,-2.5520652469,0.5795875091,1.4437986941,0.3444059006,2.3530765164,-1.0420433357,1.5373798894,1.2063243538,-0.7714313571,2.5114267115,0.0619467913,1.4368095564,-0.6705736776,1.9222887185,1.942365879,-2.4767409691,2.4231011969,1.9665525899,-0.4376190566,2.122548172,0.2164585228,0.0848480666,-0.2058688478,-1.7636118044,1.8441178257,1.8986604835,-1.0283100945,2.0476442717,0.2117605437,1.3657335123,2.0680574452,-1.6432928423,0.0983748454,2.6080163726,-0.8498486428,0.9427209572,0.0908956241,0.8033144241,1.7851347464,0.3488059244,-0.028045778,2.2963877191,0.4214749402,0.4300303806,1.5586182147,0.2617587885,-0.1198965646,-0.1846853883,4.3452917679,2.3171998269,-1.1160554387,1.46748634,0.4045936284,0.0006819724,2.5914989574,1.8331590598,-1.983269808,-0.2629243989,1.4588235566,3.0804020185,-0.8752359177,1.4079657805,0.8064457147,-1.252442657,-0.4964591609,-1.0578779061,-2.7200888335,-0.9563124588,0.306869795,0.3886921997,1.6509374689,1.2951126881,0.1030181876,-1.8102864742,-0.951902326,0.3094773633,1.1215080773,2.4029369107,-0.1893722105,-1.905251899,2.4952467573,0.1905117387,1.6868226343,1.4231827536,1.4607119101,-0.8226164377,1.2969772235,2.1055039888,1.8250724794,0.157840503,-0.9176371295,1.5067327523,0.8824374682,-0.0765761351,1.6074155697,-1.3284023259,2.2073833352,-2.0041421723,1.1203840603,0.8765422959,0.9451887742,0.4789682499,1.0857300483,2.3187710946,-0.6184663346,0.0787451519,-0.6345873573,-0.3817970722,-0.6493919196,3.029348552,0.9351513501,-0.2602992782,-1.1786617982,1.386624566,-1.0067401586,1.2552927888,-1.8329309462,1.2279181969,-0.9119998229,0.2088806673,0.2365612537,1.3917137424,-0.7988449513,0.1931489333,-0.1383321724,1.6629057474,-0.6480594605,-0.7105592569,2.3424718424,1.4195850509,2.1532760221,1.2942158777,2.5369571805,1.7081026072,-1.6608371257,0.2547607645,1.0210429443,1.5174789577,-0.7247496199,-1.6119164369,0.6297582155,-1.4595369922,-1.405749354,2.0371479984,2.9027513561,0.0877104985,0.9043765862,-2.1193060193,1.2004511312,-2.3371725309,1.758983931,-0.1055613683,-0.140916068,1.6118279726,3.5040011454,0.3379259627,-0.877090381,2.0521789672,0.5938787836,1.21706333,-1.7288559387,-0.0027096463,0.0170780793,-2.369973834,-1.2912424003,0.4465357842,-1.459911147,-0.5091966042,0.82099286,0.096435116,0.8475895078,-0.4558859487,0.5397465833,-2.8209641607,0.2900888819,0.5496302209,-1.1371866811,-0.5736501945,0.3171875109,-0.7965996446,0.3703947515,-2.0395406576,1.458272866,-1.3218674219,-0.5597066309,1.9820926464,1.1730813243,3.3043020602,-0.8134585887,0.7068875655,1.3562539266,0.2738069277,2.3357803917,1.2529139738,3.4352491023,1.5017898049,-0.1885239427,-1.6373943015,0.2393513493,1.2065972974,-0.0828456622,1.1265921886,-1.2287147761,0.7108834525,0.9423850216,-2.2708571,0.6753185619,0.13588205,1.2615261574,-1.5561664544,2.5747336526,-1.5024129703,1.0918712701,0.2022508121,1.9871648818,0.0701486099,1.469852765,2.6525956896,0.2488452155,-0.8452075354,3.3180943571,1.6888039776,0.4158643909,-0.9235696571,1.030819139,-0.5541786045,-4.2372594335,2.6406998815,2.8231381807,2.4263143865,-1.0812426909,-0.4802605764,1.5270958468,-1.7460922514,-2.2283055677,1.8888736398,-2.318139256,-0.8572748851,1.5169246451,1.0713286473,0.9314400043,0.6575159643,2.6223481629,-1.809768095,2.2806685652,-2.0206607865,-0.4580362722,-3.2586851479,-1.4123786489,0.1811598506,0.3280133644,0.8957689661,1.2393586924,1.4901860688,1.4019605508,-0.3058342445,-0.98569669,1.8720761239,0.802148439,1.250990536,-0.5064228009,-2.1698674883,1.8625439352,0.430666112,0.7978722086,1.7501140404,0.8378866142,0.9886483409,-0.7278280778,-1.6510048371,1.0307994585,-2.5537591262,1.7996895979,1.7643653931,-0.0945124105,1.3947044202,-1.1288974778,1.560485198,-0.0019908051,1.2453002283,0.9520648714,2.7663844937,0.4955131194,-5.4053267123,-0.5220561542,-0.6252193135,-1.8706053455,-0.6737651149,-0.1232745302,0.5764354535,-1.0804820754,-0.7610967071,-0.2675614397,-1.0684578104,2.1959497115,0.4637505626,0.8392047579,-0.9274330203,3.4271832399,1.0126743641,0.0425689956,-1.0141113454,-0.6332952042,0.3129103057,-0.6177117436,0.5092529577,-0.5692847248,3.098278897,-0.3932388741,3.052052465,1.3595505754,-1.2907788886,0.5631697921,-1.4372657001,-1.4280714049,-1.2311067272,-0.2596919725,1.4961659817,-1.3783726039,-3.821982819,0.6012094639,-0.9788524279,0.3125009263,1.7090528435,0.9412144585,1.629962898,1.9323884292,2.5571552957,0.9397887676,-0.2799377411,1.5416370301,1.4878690775,-0.0925046389,-0.606503561,-2.6852868354,-1.0452990167,-0.2821690391,2.6028298863,-0.5845820311,0.6091552238,0.0124851246,3.0542654325,-0.1730080696,2.0271173075,2.1831242316,0.6315318819,0.0449142673,0.1812166498,-1.2658196329,1.1846626333,0.4333185446,0.210785096,1.6386871943,-0.050475571,-1.5191794319,-0.1677076743,2.243430208,1.0632656039,1.5547775088,0.4185316311,1.9486489155,2.3892214459,-0.4771864628,3.2191932271,1.3018588785,-0.7317975683,2.8825038118,1.4549203929,1.3571826653,2.0896991273,-2.0069130049,0.3555264086,1.5703843006,-1.7598702971,-1.0800673315,-1.3297163989,-1.1613381287,3.2849502109,2.1623464567,3.8829377671,1.4472006232,3.6870078154,3.6582294421,0.9795846774,-2.6915345609,0.6198637664,0.8637643925,0.7674902544,0.896168237,-0.4396142182,-0.2350264004,0.3253736859,1.8647773286,0.7262975042,-1.1769014081,2.0248499839,-2.0396320508,-0.7969550204,-0.8900774811,0.7554539887,2.533386378,1.8855544483,-0.85520426,0.0821570087,0.5467464904,0.644964237,-0.5354601082,0.2657871846,1.4959172866,0.9546799042,2.4530037091,0.4729127147,-0.0246389394,0.7876729933,-0.7810776377,-1.7397617061,2.5772325624,0.0214027623,-0.4559277675,-0.4321722498,1.5830924894,-0.3988640611,1.625517721,0.294626265,-2.1182050408,1.3674932854,-1.9161563749,1.1988231233,1.0036575075,0.2724150416,2.1202020701,-2.6077636993,-1.1414481462,-1.1376302593,0.6646901659,0.7351096625,2.1730046274,-0.3463176963,2.6914574306,-2.451102406,-0.2224212079,2.5683775478,-3.0723229258,0.5768557363,3.4391763458,-1.3843209383,1.6576412886,-2.7197581561,2.9246832312,1.7288089239,0.6800787301,-0.7162440106,0.4682721153,1.3452843413,-1.5455770955,1.6220216924,-0.9540708583,-0.4368740603,-3.302096572,0.4747694836,1.4737038621,0.9580005503,-0.0316108561,-1.205832176,1.6775582111,0.6049257543,-1.2488930835,-2.1457242802,-0.1204113249,1.658222441,-2.8578564533,-0.2943282828,0.0057635245,0.89267878,2.0678388248,0.9434136195,0.1671645349,1.0720490582,0.6873039287,0.0271808864,-1.4703845698,0.3869233909,0.7732255953,1.8635484714,0.0948357234,2.4096163833,-1.6188796095,-0.4261983843,0.2255472315,0.0261222962,0.6625050817,-1.7296074823,-1.3106429331,0.4101754838,2.5503035683,-1.3623479958,1.6467815358,-0.4213416869,0.8128029533,-0.4451671657,2.7223271707,1.9763242451,-1.8674554531,2.5505533919,-0.2551872751,1.0206905785,0.3027516153,0.5883395808,-0.1674627962,1.8195199608,0.5117123316,-0.5456156768,-2.6208240004,-2.7681581725,1.1005544503,0.3782503706,1.0957417079,1.7551752284,1.5539459044,-0.8232687909,-1.5154164537,1.3757622072,0.1942967404,-2.733969606,-0.8732929543,-2.084325074,-0.0413131826,0.5840656328,-1.8297462018,1.2440759353,-0.7590830985,-1.9201232549,-0.8287357927,-0.2142932793,1.2625724224,-0.5948872601,1.3168178873,2.4128966966,1.3756821155,0.2629215523,1.0485716125,0.8832139794,0.4800169859,0.1050102146,1.2344352111,2.2516773643,-1.1863328148,-1.2581008593,0.3898064942,0.8169784884,0.1901339497,-0.290718156,1.6654299055,-0.4584543706,0.2692648614,0.5176874254,-1.1169503351,0.4653578047,-3.3659335499,-0.572175366,-1.8071119024,2.5088254442,0.6604474095,0.7408799386,0.6181230752,1.8774216309,-1.7292142634,0.00244357,-1.726611615,0.6740919237,2.1228273197,-0.9532021522,1.0538004179,-2.3226206566,0.7190581893,0.5443418445,-0.34429484,-0.0700327379,-1.5633951371,-0.3908546239,-1.4036016708,-0.3312054609,0.8253358806,-1.1152993441,-1.8686803937,-1.3638522733,0.3384750231,3.7072799136,-1.8356553814,0.8558424245,-0.7301371328,0.4209635662,0.3702775225,-1.1669875233,1.4306844524,-0.4945810194,0.696513941,1.058348932,0.6503537644,-0.0377988822,-1.7626981776,2.1818738866,0.4070641801,-0.221773162,0.8674110316,-0.5950706619,1.6608714346,-1.4121591928,0.6397219265,1.5203683141,-1.6559244533,1.7420964453,2.0176835595,1.1159020294,2.7327063244,-1.6512070334,2.2618554246,0.5957478861,-0.0969172118,2.257629497,0.8723122041,-0.0938828376,1.2955364158,-1.6574336066,-1.1081351965,-0.5378727308,-0.4105717205,1.2372072285,1.6734971009,-0.1476018294,4.0347270776,0.0975081705,0.8714218851,-0.9928573295,0.5164112126,0.6621636526,-2.5449453415,0.906593394,0.3991113581,0.4569782468,1.2585197813,1.0427943946,0.0847079061,0.7631932086,-2.1346009825,2.6524008497,-3.2150710527,2.344268025,-0.4545703898,0.1045055133,-2.0502109119,1.9531790596,0.0633299563,-1.1859070271,-0.2793013628,2.5181586687,0.3575379249,-0.7121923149,1.3132395009,1.4835015809,-1.5476744642,1.0701640624,0.7449588331,-0.1213771465,0.9907540235,0.0791333473,0.3298112329,-1.6535382402,-0.8206900858,1.004567071,1.7966692548,-1.1354368709,0.4291703708,1.6255325162,3.3261939911,1.2427028992,-0.9000404247,3.004291031,-2.085839873,1.1517150756,-0.3068398229,-0.903358181,1.3992233778,1.4086014923,-0.9761342013,-1.0952707196,-1.9854007323,0.2404337732,-1.4083878996,2.5833240546,1.7294300944,-0.5095079043,-1.617664858,1.7508708287,0.3897816851,-1.0351977239,-0.8078822061,0.2341287616,1.4499861748,1.5725572564,3.0115854523,-1.0456898168,2.2160061136,1.8635063251,1.4221597357,0.5740485616,0.8215385898,0.5575724976,0.6821125281,1.1342649333,-1.1308384764,0.1807575399,0.1592721028,1.4167221325,-0.2759760911,-0.4252245549,0.170113877,-0.4768974214,-0.8417607489,0.5890179514,0.547314291,0.6398850775,2.4409582214,-1.1860241855,1.3716132522,-1.2332644397,0.5760484287,1.3382361239,-2.7766743562,1.086626624,2.7918458058,2.9582978153,0.5945607351,3.8032662118,-0.1668620524,-0.6648424402,-0.3603609097,-1.0357154716,0.1273547115,-0.5871063867,-1.0636060469,0.9405134286,1.7424078769,1.3085752976,-0.7667683462,-0.3401004362,-1.2034768368,1.3034767405,0.0501970644,1.8900800032,-0.8890077063,-1.095930229,0.6781399633,0.5955816853,-1.2957163193,1.0490409262,-0.2761185959,0.3169281457,0.6032779419,-0.0769295176,1.5987870289,0.7521991723,1.4712942352,0.5428576565,0.7422321118,0.4810034117,0.6193677142,-2.1431625598,0.074448722,1.2350766254,0.3719019609,1.9693377265,-1.4178916092,-1.6361498005,1.8726185401,1.3788172816,0.7763405212,0.3500340781,0.8819902253,1.5631837271,0.6979856267,-0.6147804843,1.8540304017,1.4973497698,2.9794072208,2.8025723133,0.8129342689,0.3459252378,-0.9874412932,2.3583432157,1.3473577777,0.8325779977,-0.6531752805,1.3055454443,-0.8808562164,0.8905352518,-0.3746771405,1.4770182973,2.0392475685,-0.8002209852,1.5526080107,-1.064210425,-0.0823220774,-0.4639321188,-3.7492881555,-0.3009299024,-0.5545098265,0.653841047,-1.6114598754,0.3140761617,0.3914156248,1.7666181817,2.150083182,-0.8891676818,-0.726676445,-1.313611644,-0.0405039684,-1.5115804259,-0.6939563899,2.6170420253,0.4206268818,3.8080478146,1.6814598172,-1.8700864247,-0.5782587027,-2.5657360877,1.0237252952,0.8708599235,2.5251511557,0.1512985767,1.9226880669,-1.1603354534,0.8726559802,-3.5053270974,0.9275515349,-2.4196766597,-0.9107728021,4.2617635267,-0.3660423136,-0.0209003979,0.0804132151,1.0397040798,0.6194760637,-0.2933551566,-1.0708805203,-1.2635392128,0.7669910205,0.2973877661,1.4936285386,-1.840479797,-0.3724594072,-1.0358360934,1.3751609253,0.465075115,3.5042713442,-3.3747519527,1.1903933237,-1.402709817,-1.5181773138,-0.4361855096,1.1489616013,0.2774820317,0.3169708117,-1.8112480941,-0.3434025662,0.6536454807,0.1752506889,-1.5331231969,1.5755510528,-1.5850849015,3.0563493501,0.163422612,1.0998546891,1.4685918848,-1.0633161095,-0.1848809598,1.0892474965,0.1692963593,-2.5652106877,0.6757593009,0.9403137836,-0.8913093705,0.556516377,1.7574107026,-1.4018546028,0.14810623,2.5717890346,-0.2610485569,1.4886198057,2.3456481347,1.9364733564,-0.4614831767,-0.7581008861,2.4132675922,0.5535758686,1.9619283551,2.572869035,0.5458257552,1.4157152334,1.2136253527,0.7563225463,1.1510187138,-0.0064824632,0.6614271344,1.1218226194,2.9673248507,-0.1654148888,1.0994569554,-0.8315789075,0.2299924022,-0.0039081108,-1.0037150624,-0.5788326304,0.4370335468,1.4158090009,1.147770024,-1.2293568341,1.8747743006,0.5191516856,-0.7062676208,-1.0633791513,-1.1936644489,0.711955721,2.684110215,-0.3069656691,-1.1563731332,-0.9832358765,1.8042688099,-1.2860975207,-0.6068156001,0.0180643532,0.3073619003,2.7307818202,-2.5717946857,2.370571401,2.1452945568,1.2439375631,2.2432348413
